{"learner":{"attributes":{"scikit_learn":"{\"n_estimators\": 30, \"objective\": \"reg:squarederror\", \"max_depth\": 10, \"learning_rate\": null, \"verbosity\": null, \"booster\": null, \"tree_method\": null, \"gamma\": null, \"min_child_weight\": null, \"max_delta_step\": null, \"subsample\": null, \"colsample_bytree\": null, \"colsample_bylevel\": null, \"colsample_bynode\": null, \"reg_alpha\": null, \"reg_lambda\": null, \"scale_pos_weight\": null, \"base_score\": null, \"missing\": NaN, \"num_parallel_tree\": null, \"kwargs\": {\"seed\": 420}, \"random_state\": null, \"n_jobs\": null, \"monotone_constraints\": null, \"interaction_constraints\": null, \"importance_type\": \"gain\", \"gpu_id\": null, \"validate_parameters\": null, \"n_features_in_\": 37, \"type\": \"XGBRegressor\"}"},"gradient_booster":{"model":{"gbtree_model_param":{"num_trees":"30","size_leaf_vector":"0"},"tree_info":[0,0,0,0,0,0,0,0,0,0,0,0,0,0,0,0,0,0,0,0,0,0,0,0,0,0,0,0,0,0],"trees":[{"base_weights":[2.2605127E4,1.6848518E4,3.1633715E4,1.5072932E4,2.2480135E4,2.7268025E4,4.6046402E4,1.1455302E4,1.6761645E4,1.7230676E4,2.5175727E4,2.2154713E4,2.8465871E4,5.1694875E4,3.7380227E4,8.671123E3,1.2895016E4,1.8364748E4,1.3692655E4,1.8934434E4,1.2086668E4,3.7833715E4,2.3682748E4,2.1766355E4,5.57828E4,2.7955463E4,3.468766E4,5.0098133E4,6.801544E4,3.591525E4,4.8259133E4,5.112945E3,9.574055E3,1.41731875E4,1.1205569E4,1.6133362E4,1.9738688E4,1.4692521E4,1.1970111E4,2.0529902E4,1.6713682E4,6.85184E3,1.3467878E4,5.2276793E4,3.5018375E4,2.2737357E4,3.1960656E4,2.266155E4,1.9140123E4,3.0864258E4,2.7120174E4,6.3171582E4,4.8561766E4,3.4834617E4,5.526392E4,6.5409375E3,3.9161636E3,1.0628955E4,8.666316E3,1.5177082E4,1.2517476E4,1.1982295E4,9.798173E3,1.5875418E4,2.6648133E4,1.9635064E4,4.3325875E4,1.3476625E4,1.583488E4,1.2643872E4,1.0101688E4,2.1836455E4,1.5145795E4,2.1813333E3,7.1631304E3,1.3896781E4,6.642143E3,5.748915E4,1.7476666E4,3.5878938E4,1.9142084E4,2.1771508E4,2.7482822E4,2.7787316E4,2.369573E4,3.4293992E4,5.61966E4,1.0623375E4,5.922811E3,2.897238E3,4.462453E3,9.882632E3,7.877455E3,1.5000139E4,2.7163666E4,1.28248545E4,1.0655078E4,9.859459E3,3.7946667E3,1.6901684E4,1.408976E4,1.9998404E4,1.6214307E4,1.5052137E4,1.2656773E4,1.6543252E4,1.4368523E4,1.2917107E4,9.868259E3,1.3491579E4,2.291296E4,7.530725E3,3.534375E3,3.6712355E4,2.0870416E4,2.1345334E4,2.8897621E4,2.6267758E4,3.5216875E4,2.8312688E4,2.3458947E4,3.479613E4,2.3705732E4,4.0324614E3,6.66888E3,9.163333E2,3.0575264E3,7.9753613E3,2.995375E3,1.5471943E4,1.255226E4,1.6740902E4,3.3830668E4,1.448238E4,1.1715976E4,2.1188172E4,1.886661E4,2.801752E4,2.1451533E4,7.703421E3,2.12475E3,1.9873965E4,2.261961E4,3.0114482E4,2.7408895E4,2.6161006E4,1.921434E4,1.96975E3,6.782604E3,1.6570309E4,1.438148E4,1.7174172E4,1.4582221E4,2.1845414E4,1.7915588E4,1.9214094E4,1.6489932E4,1.8093213E4,2.271031E4,1.9380633E4,2.7642615E4,1.5395283E4,2.0447783E4,1.7573941E4,1.4982358E4,1.9551164E4,1.646849E4],"categories":[],"categories_nodes":[],"categories_segments":[],"categories_sizes":[],"default_left":[true,true,true,true,true,true,true,true,true,true,true,true,true,true,true,true,true,true,true,true,true,true,true,true,false,true,false,true,false,true,false,true,true,true,true,true,true,true,true,true,false,true,true,true,true,true,false,false,false,false,true,false,false,true,false,true,true,false,true,true,false,true,true,true,false,true,false,true,true,true,false,true,false,false,true,false,false,false,false,true,false,true,true,true,false,true,false,false,true,true,false,false,true,true,false,false,false,false,false,true,true,true,false,false,false,false,false,false,false,false,true,true,false,false,false,true,false,false,false,true,true,false,false,false,true,false,false,false,false,true,false,true,false,false,false,true,true,false,true,false,false,true,false,false,false,false,false,false,false,true,false,true,false,false,false,true,false,false,false,false,false,false,false,false,false,false,false],"id":0,"left_children":[1,3,5,7,9,11,13,15,17,19,21,23,25,27,29,31,33,35,37,39,41,43,45,47,-1,49,-1,51,-1,53,-1,55,57,59,61,63,65,67,69,71,-1,73,75,77,79,81,-1,-1,-1,-1,83,-1,-1,85,-1,87,89,-1,91,93,-1,95,97,99,-1,101,-1,103,105,107,-1,109,-1,-1,111,-1,-1,-1,-1,113,-1,115,117,119,-1,121,-1,-1,123,125,-1,-1,127,129,-1,-1,-1,-1,-1,131,133,135,-1,-1,-1,-1,-1,-1,-1,-1,137,139,-1,-1,-1,141,-1,-1,-1,143,145,-1,-1,-1,147,-1,-1,-1,-1,149,-1,151,-1,-1,-1,153,155,-1,157,-1,-1,159,-1,-1,-1,-1,-1,-1,-1,161,-1,163,-1,-1,-1,165,-1,-1,-1,-1,-1,-1,-1,-1,-1,-1,-1],"loss_changes":[4.4774352E11,5.234793E10,2.0997131E11,2.429957E10,1.74099E10,1.5165555E10,3.620025E10,5.014962E9,1.3184795E10,3.5484877E9,1.4808318E10,5.2373094E9,5.654708E9,8.814592E9,3.223257E9,1.3614633E9,1.6572416E9,5.1723633E9,1.4448394E9,7.977697E8,7.0306406E8,1.666302E9,5.111415E9,7.182418E8,0E0,3.859546E9,0E0,5.589172E9,0E0,3.8875628E9,0E0,1.299031E8,2.420818E8,5.995479E8,2.8378726E8,1.4429716E9,1.8476237E9,6.0749414E8,3.1413453E8,9.566044E8,0E0,2.072192E7,1.594665E8,1.17197E9,3.3789542E8,2.486272E9,0E0,0E0,0E0,0E0,2.7913093E9,0E0,0E0,1.1447828E9,0E0,3.8018304E7,1.6015936E7,0E0,1.0733363E8,2.0973568E8,0E0,1.2278579E8,1.262592E7,9.969992E8,0E0,1.0441851E9,0E0,1.8795315E8,7.287603E7,6.516736E7,0E0,9.9344384E8,0E0,0E0,4.063616E6,0E0,0E0,0E0,0E0,1.0937958E8,0E0,1.096024E9,1.086423E8,2.1965046E9,0E0,5.681316E8,0E0,0E0,2.529024E7,3.866128E6,0E0,0E0,3.4425344E7,1.39563E8,0E0,0E0,0E0,0E0,0E0,5.849907E8,6.518784E7,9.3474E8,0E0,0E0,0E0,0E0,0E0,0E0,0E0,0E0,3.4639462E8,2.303872E6,0E0,0E0,0E0,5.554176E8,0E0,0E0,0E0,9.936568E8,1.1259576E9,0E0,0E0,0E0,1.28E2,0E0,0E0,0E0,0E0,4.6751744E7,0E0,1.4331904E8,0E0,0E0,0E0,6.302925E8,1.1011686E8,0E0,2.4518656E7,0E0,0E0,4.492247E8,0E0,0E0,0E0,0E0,0E0,0E0,0E0,1.954857E8,0E0,3.899392E7,0E0,0E0,0E0,8.984986E7,0E0,0E0,0E0,0E0,0E0,0E0,0E0,0E0,0E0,0E0,0E0],"parents":[2147483647,0,0,1,1,2,2,3,3,4,4,5,5,6,6,7,7,8,8,9,9,10,10,11,11,12,12,13,13,14,14,15,15,16,16,17,17,18,18,19,19,20,20,21,21,22,22,23,23,25,25,27,27,29,29,31,31,32,32,33,33,34,34,35,35,36,36,37,37,38,38,39,39,41,41,42,42,43,43,44,44,45,45,50,50,53,53,55,55,56,56,58,58,59,59,61,61,62,62,63,63,65,65,67,67,68,68,69,69,71,71,74,74,79,79,81,81,82,82,83,83,85,85,88,88,89,89,92,92,93,93,99,99,100,100,101,101,110,110,111,111,115,115,119,119,120,120,124,124,129,129,131,131,135,135,136,136,138,138,141,141,149,149,151,151,155,155],"right_children":[2,4,6,8,10,12,14,16,18,20,22,24,26,28,30,32,34,36,38,40,42,44,46,48,-1,50,-1,52,-1,54,-1,56,58,60,62,64,66,68,70,72,-1,74,76,78,80,82,-1,-1,-1,-1,84,-1,-1,86,-1,88,90,-1,92,94,-1,96,98,100,-1,102,-1,104,106,108,-1,110,-1,-1,112,-1,-1,-1,-1,114,-1,116,118,120,-1,122,-1,-1,124,126,-1,-1,128,130,-1,-1,-1,-1,-1,132,134,136,-1,-1,-1,-1,-1,-1,-1,-1,138,140,-1,-1,-1,142,-1,-1,-1,144,146,-1,-1,-1,148,-1,-1,-1,-1,150,-1,152,-1,-1,-1,154,156,-1,158,-1,-1,160,-1,-1,-1,-1,-1,-1,-1,162,-1,164,-1,-1,-1,166,-1,-1,-1,-1,-1,-1,-1,-1,-1,-1,-1],"split_conditions":[2.0185E3,2.9E0,2.5E0,2.0155E3,2.0155E3,1.75E0,3.795E1,2.0135E3,5E-1,6.937E4,3.47E1,5E-1,5E-1,5E-1,5E-1,2.0105E3,5E-1,1.3E2,3.4731E4,4.8300003E1,2.0095E3,4.608E3,5E-1,5.28E1,1.6734842E4,4.5199997E1,1.0406299E4,2.68E1,2.0404633E4,5E-1,1.447774E4,7.85E4,5E-1,5.2063E4,5.49615E4,5E-1,5E-1,1.75E0,7.15E1,5E-1,5.0141045E3,2.0035E3,1.17065E5,5E-1,5E-1,2.0175E3,9.588197E3,6.7984653E3,5.742037E3,9.259277E3,5E-1,1.8951475E4,1.456853E4,5E-1,1.6579178E4,2.93165E4,2.0075E3,3.1886868E3,5.70625E4,5E-1,3.755243E3,5E-1,1.308435E5,4.14735E4,7.99444E3,5E-1,1.2997763E4,1.69455E4,6.495E1,7.8658E4,3.0305066E3,2.0125E3,4.543739E3,6.544E2,1.225E5,4.1690347E3,1.992643E3,1.7246746E4,5.243E3,5E-1,5.7426255E3,5E-1,5E-1,5E-1,7.108719E3,5E-1,1.685898E4,3.1870127E3,2.0065E3,2.001E3,1.338736E3,2.9647896E3,1.305E5,5E-1,8.1491E3,3.8474565E3,3.1965237E3,2.957838E3,1.1384E3,5E-1,7.8929E4,2.1716E4,4.864292E3,4.515641E3,3.7970322E3,4.9629756E3,4.310557E3,3.8751323E3,2.9604778E3,4.0474739E3,3.445E1,5E-1,1.0603125E3,1.1013707E4,6.261125E3,2.0165E3,8.669287E3,7.8803276E3,1.05650625E4,2.0235E3,6.425E1,1.0438839E4,7.11172E3,1.2097385E3,1.8E0,2.749E2,9.1725793E2,2.3926084E3,8.9861255E2,3.54885E4,3.765678E3,5E-1,1.0149201E4,4.3447144E3,3.5147927E3,5E-1,4.9182E4,8.405256E3,4.035E1,2.3110264E3,6.3742505E2,5E-1,6.7858833E3,9.034345E3,8.222669E3,7.8483022E3,5.7643022E3,5.9092505E2,2.0347812E3,3.33015E4,4.3144443E3,5E-1,4.3746665E3,6.5536245E3,5.374677E3,5E-1,4.9469795E3,5.427964E3,6.8130933E3,5.81419E3,8.292785E3,4.618585E3,6.134335E3,5.2721826E3,4.4947075E3,5.8653496E3,4.9405474E3],"split_indices":[32,36,36,32,32,36,35,32,30,33,35,23,15,19,6,32,30,34,33,35,32,33,17,35,0,35,0,35,0,7,0,33,30,33,33,17,23,36,35,0,0,32,33,1,0,32,0,0,0,0,1,0,0,17,0,33,32,0,33,23,0,0,33,33,0,0,0,33,35,33,0,32,0,0,33,0,0,0,0,1,0,6,18,0,0,0,0,0,32,32,0,0,33,0,0,0,0,0,0,23,33,33,0,0,0,0,0,0,0,0,35,4,0,0,0,32,0,0,0,33,35,0,0,0,36,0,0,0,0,33,0,0,0,0,0,1,33,0,35,0,0,18,0,0,0,0,0,0,0,33,0,1,0,0,0,1,0,0,0,0,0,0,0,0,0,0,0],"split_type":[0,0,0,0,0,0,0,0,0,0,0,0,0,0,0,0,0,0,0,0,0,0,0,0,0,0,0,0,0,0,0,0,0,0,0,0,0,0,0,0,0,0,0,0,0,0,0,0,0,0,0,0,0,0,0,0,0,0,0,0,0,0,0,0,0,0,0,0,0,0,0,0,0,0,0,0,0,0,0,0,0,0,0,0,0,0,0,0,0,0,0,0,0,0,0,0,0,0,0,0,0,0,0,0,0,0,0,0,0,0,0,0,0,0,0,0,0,0,0,0,0,0,0,0,0,0,0,0,0,0,0,0,0,0,0,0,0,0,0,0,0,0,0,0,0,0,0,0,0,0,0,0,0,0,0,0,0,0,0,0,0,0,0,0,0,0,0],"sum_hessian":[8.624E3,5.268E3,3.356E3,4.008E3,1.26E3,2.578E3,7.78E2,1.278E3,2.73E3,4.3E2,8.3E2,4.93E2,2.085E3,4.68E2,3.1E2,4.38E2,8.4E2,1.79E3,9.4E2,3.21E2,1.09E2,8.5E1,7.45E2,4.89E2,4E0,1.932E3,1.53E2,4.3E2,3.8E1,2.77E2,3.3E1,9E1,3.48E2,4.74E2,3.66E2,6.87E2,1.103E3,5.9E2,3.5E2,1.82E2,1.39E2,2.4E1,8.5E1,1.1E1,7.4E1,6.72E2,7.3E1,3.59E2,1.3E2,4.23E2,1.509E3,4.1E1,3.89E2,2.65E2,1.2E1,3.9E1,5.1E1,1.56E2,1.92E2,2.9E2,1.84E2,2.31E2,1.35E2,6.73E2,1.4E1,1.1E3,3E0,2.92E2,2.98E2,2.53E2,9.7E1,1.44E2,3.8E1,2E0,2.2E1,7.9E1,6E0,9E0,2E0,6.9E1,5E0,5.63E2,1.09E2,1.257E3,2.52E2,2.61E2,4E0,3E0,3.6E1,2E1,3.1E1,7.1E1,1.21E2,2.88E2,2E0,1.36E2,9.5E1,1.33E2,2E0,4.22E2,2.51E2,9.9E2,1.1E2,9.4E1,1.98E2,1.94E2,1.04E2,2.27E2,2.6E1,1.8E1,1.26E2,1.9E1,3E0,6.4E1,5E0,5.35E2,2.8E1,9.8E1,1.1E1,1.116E3,1.41E2,2.47E2,1.4E1,1.2E1,2.4E1,2E0,1.8E1,1.18E2,3E0,2.37E2,5.1E1,4.2E2,2E0,2.11E2,4E1,4.74E2,5.16E2,2.4E1,1.02E2,1.8E1,1E0,2.56E2,2.79E2,3.62E2,7.54E2,8.3E1,5.8E1,1E0,2.3E1,1.11E2,1.26E2,3.44E2,7.6E1,3.9E2,8.4E1,4.44E2,7.2E1,3.2E1,7E1,2.44E2,1.2E1,8.9E1,2.2E1,2.85E2,5.9E1,3.9E2,5.4E1],"tree_param":{"num_deleted":"0","num_feature":"37","num_nodes":"167","size_leaf_vector":"0"}},{"base_weights":[1.5884864E4,1.185511E4,2.2205059E4,1.0594458E4,1.5853604E4,1.912132E4,3.2385742E4,1.1884249E4,8.1610767E3,1.7737945E4,1.1797764E4,1.5567562E4,1.9953744E4,3.630139E4,2.6376658E4,1.304891E4,9.759832E3,5.752179E3,9.033977E3,2.5674727E4,1.661066E4,7.2667954E3,1.2728397E4,1.5262042E4,4.2394926E4,1.9357691E4,2.264804E4,3.5146465E4,4.8134E4,2.7976893E4,2.1237793E4,1.2946319E4,3.5835887E4,1.0603378E4,8.857886E3,3.7915105E3,6.6005376E3,1.0004339E4,7.5658657E3,3.84679E4,2.376842E4,1.5945593E4,2.309531E4,8.378125E3,4.221814E3,1.1814587E4,1.6689326E4,1.6365183E4,1.3523836E4,1.9837338E4,1.5900745E4,2.314007E4,1.689233E4,3.426279E4,5.1592805E4,2.950228E4,1.933274E4,1.1589267E4,1.3890152E4,1.1933513E4,1.0024998E4,1.0138819E4,8.209454E3,2.9810935E3,4.6832983E3,7.0256304E3,5.484516E3,9.78104E3,1.7696965E4,8.1743594E3,6.5538765E3,4.196708E4,1.3981333E4,8.779812E3,2.4337027E4,1.4234247E4,1.7344332E4,2.8006287E4,2.0909176E4,1.1502771E4,7.3354604E3,1.19755E3,4.31315E3,1.0257861E4,1.2570556E4,1.5706691E4,1.825738E4,1.4477535E4,1.2311917E4,1.9439969E4,2.3624076E4,3.402656E4,2.2809043E4,3.3396156E4,4.2386652E4,3.381721E4,2.5782133E4,1.1414968E4,1.926477E4,1.348255E4,1.6568432E4,8.359235E3,1.0245863E4,1.4267348E4,9.803391E3,7.7786123E3,9.166619E3,3.5195945E3,2.3848926E3,5.41029E3,3.6526567E3,6.7551626E3,9.144657E3,5.997864E3,4.3902827E3,1.0250061E4,8.1801562E3,8.594828E3,6.6197764E3,6.8589214E3,5.321113E3,5.2384203E4,2.6291629E4,9.799258E3,2.3510132E3,3.4160508E4,2.253679E4,1.3942398E4,1.8816777E4,1.8272451E4,1.4166952E4,2.930566E4,1.1740868E4,2.6147673E3,7.7751367E3,7.617256E3,1.0696247E4,1.2910258E4,9.207426E3,1.5239241E4,1.8356635E4,1.926997E4,2.5919277E4,3.3877836E4,2.6182434E4,2.474045E4,4.2709414E4,9.070673E3,1.1796842E4,1.4392246E4,1.270754E4,1.0406654E4,7.522696E3,1.0092034E4,7.783358E3,3.6060945E3,4.623E2,1.6235537E3,2.6027468E3,6.829085E3,3.6333967E3,8.625531E3,1.0556543E4,8.209947E3,2.0196285E3,7.847668E3,9.298706E3,9.546122E3,3.5530348E4,2.2657873E4,6.546122E3,1.3683802E4,1.7943477E4,1.9766227E4,1.5468285E4,8.0630005E3,4.320207E3,1.3766011E4,1.1360578E4,1.964196E4,1.69828E4,3.43745E4,2.7868E4,2.3923809E3,9.113965E3,1.2151525E4,9.715003E3,1.1881867E4,1.4934575E4,1.2985171E4,1.0794536E4,1.0422723E4,3.0020217E3,1.1661814E4,9.793135E3,1.4098985E4,1.2145436E4,4.7426978E3,1.8547627E4,2.0724574E4,1.6267706E4,2.006814E4,1.7866666E4,1.7522799E4,1.299382E4,1.1833672E4,1.4299841E4,1.5492865E4,1.3123573E4,1.3263639E4,1.1337019E4,7.0099517E3,1.1806962E4,1.1372847E4,9.462764E3,1.4647252E4,1.215248E4,2.1713598E4,1.5039563E4,2.3030146E4,1.9854879E4,1.6456602E4,2.0792635E4],"categories":[],"categories_nodes":[],"categories_segments":[],"categories_sizes":[],"default_left":[true,true,true,true,true,true,true,true,true,true,true,true,true,true,true,true,true,true,true,true,true,true,true,true,false,true,true,true,false,true,false,true,false,true,true,true,true,true,true,true,true,true,true,true,true,true,false,true,true,true,false,true,false,true,false,true,false,true,true,false,true,true,true,true,true,true,true,true,false,true,true,true,false,true,true,true,true,true,false,false,true,false,false,true,true,true,false,false,false,true,false,false,false,true,false,false,true,true,false,true,false,false,true,false,true,false,false,true,true,false,false,true,false,false,false,true,true,true,false,false,false,false,false,false,false,true,true,true,false,true,false,false,false,false,true,false,false,true,false,false,false,true,false,true,false,false,false,true,true,true,true,true,false,false,false,false,false,false,false,false,false,false,true,false,false,false,false,false,false,false,false,true,true,true,false,false,false,false,false,true,true,false,false,false,false,true,false,false,true,true,false,false,false,true,true,true,false,false,false,true,false,true,true,false,false,false,false,false,false,false,false,false,false,false,false,false,false,false,false,false,false,false,false],"id":1,"left_children":[1,3,5,7,9,11,13,15,17,19,21,23,25,27,29,31,33,35,37,39,41,43,45,47,-1,49,51,53,-1,55,-1,57,-1,59,61,63,65,67,69,71,73,75,77,79,81,83,-1,85,87,89,-1,91,-1,93,-1,95,-1,97,99,-1,101,103,105,107,109,111,113,115,-1,117,119,121,-1,123,125,127,129,131,-1,-1,133,-1,-1,135,137,139,-1,-1,-1,141,-1,-1,-1,143,-1,-1,145,147,-1,149,-1,-1,151,-1,153,-1,-1,155,157,-1,-1,159,-1,-1,-1,161,163,165,-1,-1,-1,-1,-1,-1,-1,167,169,171,-1,173,-1,-1,-1,-1,175,-1,-1,177,-1,-1,-1,179,-1,181,-1,-1,-1,183,185,187,189,191,-1,-1,-1,-1,-1,-1,-1,-1,-1,-1,193,-1,-1,-1,-1,-1,-1,-1,-1,195,197,199,-1,-1,-1,-1,-1,201,203,-1,-1,-1,-1,205,-1,-1,207,209,-1,-1,-1,211,213,215,-1,-1,-1,217,-1,219,221,-1,-1,-1,-1,-1,-1,-1,-1,-1,-1,-1,-1,-1,-1,-1,-1,-1,-1,-1,-1],"loss_changes":[2.1940548E11,2.6391544E10,1.0477227E11,1.2485493E10,9.428042E9,7.3186017E9,1.737189E10,6.3501435E9,2.8750316E9,7.2589967E9,1.606824E9,3.4019246E9,2.9116334E9,4.7175434E9,1.9633111E9,3.482157E9,6.144164E8,5.954038E8,1.3774029E9,1.6463872E9,2.8878602E9,2.0489165E8,1.008128E9,7.1825E8,0E0,2.5281823E9,6.626017E8,4.4960645E9,0E0,2.515075E9,0E0,1.9934085E9,0E0,2.4656282E8,2.955223E8,6.915149E7,8.433971E7,8.764539E8,1.9889971E8,4.414382E8,5.874524E8,1.3999964E9,1.4446182E8,8.177766E7,6.35456E5,1.9350733E8,0E0,8.080589E7,4.829184E7,1.8008637E9,0E0,4.4915098E8,0E0,1.4851113E9,0E0,2.2904177E9,0E0,7.1122944E8,8.5408154E8,0E0,3.870515E7,6.6471936E7,5.5709696E7,1.1832576E7,1.9949184E7,4.368179E7,1.63584E7,3.6365517E8,0E0,1.0782515E8,2.3294976E7,2.5566618E8,0E0,9.73088E6,8.217477E8,1.589289E8,8.440545E8,3.635405E7,0E0,0E0,6.4768256E7,0E0,0E0,2.8496896E7,8.677171E7,2.08896E5,0E0,0E0,0E0,1.0040115E9,0E0,0E0,0E0,4.2296934E8,0E0,0E0,8.829665E8,5.044306E8,0E0,4.2483712E8,0E0,0E0,5.044429E7,0E0,3.663872E6,0E0,0E0,6.53104E6,1.247712E6,0E0,0E0,1.3725696E7,0E0,0E0,0E0,1.3647872E8,9.112576E6,2.9579264E7,0E0,0E0,0E0,0E0,0E0,0E0,0E0,6.543667E7,4.640768E6,6.486835E7,0E0,8.9224806E8,0E0,0E0,0E0,0E0,1.964544E6,0E0,0E0,5.712077E7,0E0,0E0,0E0,8.01407E8,0E0,8.67369E7,0E0,0E0,0E0,7.107584E6,3.1317197E8,3.521577E8,1.1157504E8,1.429504E6,0E0,0E0,0E0,0E0,0E0,0E0,0E0,0E0,0E0,0E0,2.064302E8,0E0,0E0,0E0,0E0,0E0,0E0,0E0,0E0,1.1431936E7,3.1662592E7,2.7642266E8,0E0,0E0,0E0,0E0,0E0,5.0469274E8,1.9019366E8,0E0,0E0,0E0,0E0,1.6879616E8,0E0,0E0,1.1617075E8,3.734733E7,0E0,0E0,0E0,1.8515968E7,1.2937216E7,5.571789E7,0E0,0E0,0E0,4.606034E8,0E0,1.1884954E8,6.0675686E8,0E0,0E0,0E0,0E0,0E0,0E0,0E0,0E0,0E0,0E0,0E0,0E0,0E0,0E0,0E0,0E0,0E0,0E0,0E0,0E0],"parents":[2147483647,0,0,1,1,2,2,3,3,4,4,5,5,6,6,7,7,8,8,9,9,10,10,11,11,12,12,13,13,14,14,15,15,16,16,17,17,18,18,19,19,20,20,21,21,22,22,23,23,25,25,26,26,27,27,29,29,31,31,33,33,34,34,35,35,36,36,37,37,38,38,39,39,40,40,41,41,42,42,43,43,44,44,45,45,47,47,48,48,49,49,51,51,53,53,55,55,57,57,58,58,60,60,61,61,62,62,63,63,64,64,65,65,66,66,67,67,69,69,70,70,71,71,73,73,74,74,75,75,76,76,77,77,80,80,83,83,84,84,85,85,89,89,93,93,96,96,97,97,99,99,102,102,104,104,107,107,108,108,111,111,115,115,116,116,117,117,125,125,126,126,127,127,129,129,134,134,137,137,141,141,143,143,147,147,148,148,149,149,150,150,151,151,162,162,171,171,172,172,173,173,179,179,180,180,185,185,188,188,189,189,193,193,194,194,195,195,199,199,201,201,202,202],"right_children":[2,4,6,8,10,12,14,16,18,20,22,24,26,28,30,32,34,36,38,40,42,44,46,48,-1,50,52,54,-1,56,-1,58,-1,60,62,64,66,68,70,72,74,76,78,80,82,84,-1,86,88,90,-1,92,-1,94,-1,96,-1,98,100,-1,102,104,106,108,110,112,114,116,-1,118,120,122,-1,124,126,128,130,132,-1,-1,134,-1,-1,136,138,140,-1,-1,-1,142,-1,-1,-1,144,-1,-1,146,148,-1,150,-1,-1,152,-1,154,-1,-1,156,158,-1,-1,160,-1,-1,-1,162,164,166,-1,-1,-1,-1,-1,-1,-1,168,170,172,-1,174,-1,-1,-1,-1,176,-1,-1,178,-1,-1,-1,180,-1,182,-1,-1,-1,184,186,188,190,192,-1,-1,-1,-1,-1,-1,-1,-1,-1,-1,194,-1,-1,-1,-1,-1,-1,-1,-1,196,198,200,-1,-1,-1,-1,-1,202,204,-1,-1,-1,-1,206,-1,-1,208,210,-1,-1,-1,212,214,216,-1,-1,-1,218,-1,220,222,-1,-1,-1,-1,-1,-1,-1,-1,-1,-1,-1,-1,-1,-1,-1,-1,-1,-1,-1,-1],"split_conditions":[2.0185E3,2.9E0,2.5E0,4.373E4,4.20995E4,1.75E0,3.795E1,5E-1,2.0135E3,3.47E1,2.0125E3,5E-1,2.0195E3,5E-1,5E-1,5E-1,5E-1,2.0115E3,5E-1,4.608E3,5E-1,5E-1,5E-1,5.325E3,1.2718479E4,5E-1,5E-1,3.7E0,1.44402E4,5E-1,6.3713384E3,2.0165E3,1.0750767E4,2.0633E4,2.09185E4,2.0095E3,5E-1,5E-1,5E-1,5E-1,2.0135E3,2.0165E3,2.0229E4,2.4150002E1,2.0035E3,2.0145E3,5.006798E3,2.0195E3,5.185E1,5E-1,4.7702236E3,2.14E1,5.067699E3,5E-1,1.5477842E4,4.75E1,5.7998223E3,5E-1,5E-1,3.580054E3,2.0145E3,1.5015E3,2.0165E3,8.85E4,7.90495E4,5E-1,7.0518E4,7.40065E4,5.30909E3,7.9265E4,7.22565E4,3.34E1,4.1944E3,5E-1,2.715E1,5E-1,5E-1,4.75E1,6.272753E3,3.4508315E3,2.007E3,3.59265E2,1.2939451E3,1.475E2,7.3599E4,5E-1,5.4772144E3,4.3432607E3,3.6935752E3,5E-1,7.087223E3,1.0207968E4,6.8427134E3,5E-1,1.2715996E4,1.0145164E4,5E-1,2.0145E3,5.779431E3,1.88235E4,4.97053E3,2.5077708E3,7.065E1,4.2802046E3,7.15E1,2.3335837E3,2.7499858E3,2.65E0,3.895E1,1.623087E3,1.0957971E3,1.07E5,2.7433972E3,1.7993593E3,1.3170848E3,2.0145E3,1.39315E5,7.75E1,1.985933E3,2.0576765E3,1.5963339E3,1.5715262E4,7.887489E3,2.9397773E3,7.0530396E2,2.0145E3,5E-1,5E-1,5.645033E3,5E-1,4.250086E3,8.791698E3,3.5222605E3,7.8443024E2,1.005E5,2.2851768E3,3.2088743E3,5E-1,2.7622278E3,4.5717725E3,5.5069907E3,1.00135E4,7.7757837E3,5E-1,7.8547305E3,7.4221353E3,1.2812825E4,1.999E3,5E-1,1.75E0,5E-1,4.3542E4,2.2568088E3,3.0276104E3,2.3350076E3,1.0818284E3,1.3869E2,4.8706613E2,7.808241E2,2.0487256E3,1.090019E3,2.5876594E3,6.075E1,2.4629844E3,6.058886E2,2.3543005E3,2.7896118E3,2.8638367E3,1.06591045E4,6.7973623E3,1.9638367E3,5.28E1,2.015E3,5E-1,4.640486E3,2.4189001E3,1.2960621E3,4.129803E3,3.4081736E3,6.075E1,5E-1,1.0312351E4,8.3604E3,7.177143E2,2.7341895E3,5E-1,2.914501E3,3.5645603E3,6.21E1,5E-1,3.238361E3,3.126817E3,9.0060657E2,1.8E0,5E-1,5E-1,3.6436309E3,1.4228093E3,5.564288E3,5E-1,4.880312E3,3.51E1,5E-1,5.25684E3,3.8981462E3,3.5501018E3,4.2899526E3,4.64786E3,3.937072E3,3.9790918E3,3.4011057E3,2.1029856E3,3.5420886E3,3.4118542E3,2.838829E3,4.394176E3,3.6457444E3,6.5140796E3,4.511869E3,6.9090444E3,5.956464E3,4.9369805E3,6.2377905E3],"split_indices":[32,36,36,33,33,36,35,30,32,35,32,23,32,19,3,23,0,32,30,33,17,2,17,33,0,1,30,36,0,28,0,32,0,33,33,32,0,17,0,1,32,32,33,35,32,32,0,32,35,15,0,35,0,18,0,35,0,17,4,0,32,33,32,33,33,15,33,33,0,33,33,35,0,21,35,18,0,35,0,0,32,0,0,34,33,13,0,0,0,16,0,0,0,2,0,0,17,32,0,33,0,0,35,0,35,0,0,36,35,0,0,33,0,0,0,32,33,34,0,0,0,0,0,0,0,32,6,6,0,2,0,0,0,0,33,0,0,2,0,0,0,33,0,16,0,0,0,32,0,36,0,33,0,0,0,0,0,0,0,0,0,0,35,0,0,0,0,0,0,0,0,35,32,3,0,0,0,0,0,35,0,0,0,0,0,15,0,0,35,1,0,0,0,36,24,0,0,0,0,1,0,35,4,0,0,0,0,0,0,0,0,0,0,0,0,0,0,0,0,0,0,0,0],"split_type":[0,0,0,0,0,0,0,0,0,0,0,0,0,0,0,0,0,0,0,0,0,0,0,0,0,0,0,0,0,0,0,0,0,0,0,0,0,0,0,0,0,0,0,0,0,0,0,0,0,0,0,0,0,0,0,0,0,0,0,0,0,0,0,0,0,0,0,0,0,0,0,0,0,0,0,0,0,0,0,0,0,0,0,0,0,0,0,0,0,0,0,0,0,0,0,0,0,0,0,0,0,0,0,0,0,0,0,0,0,0,0,0,0,0,0,0,0,0,0,0,0,0,0,0,0,0,0,0,0,0,0,0,0,0,0,0,0,0,0,0,0,0,0,0,0,0,0,0,0,0,0,0,0,0,0,0,0,0,0,0,0,0,0,0,0,0,0,0,0,0,0,0,0,0,0,0,0,0,0,0,0,0,0,0,0,0,0,0,0,0,0,0,0,0,0,0,0,0,0,0,0,0,0,0,0,0,0,0,0,0,0,0,0,0,0,0,0,0,0,0,0,0,0],"sum_hessian":[8.624E3,5.268E3,3.356E3,4.008E3,1.26E3,2.578E3,7.78E2,2.617E3,1.391E3,8.58E2,4.02E2,4.93E2,2.085E3,4.68E2,3.1E2,1.687E3,9.3E2,3.72E2,1.019E3,1.04E2,7.54E2,7E1,3.32E2,4.89E2,4E0,1.714E3,3.71E2,4.3E2,3.8E1,2.33E2,7.7E1,1.681E3,6E0,4.75E2,4.55E2,1.14E2,2.58E2,6.1E2,4.09E2,1.1E1,9.3E1,6.87E2,6.7E1,5E1,2E1,2.73E2,5.9E1,2.94E2,1.95E2,1.501E3,2.13E2,3.39E2,3.2E1,4.11E2,1.9E1,1.96E2,3.7E1,6.95E2,9.86E2,1.38E2,3.37E2,1.48E2,3.07E2,6.2E1,5.2E1,1.83E2,7.5E1,5.95E2,1.5E1,2.51E2,1.58E2,9E0,2E0,4E0,8.9E1,3.14E2,3.73E2,1.7E1,5E1,1E1,4E1,1E0,1.9E1,9.4E1,1.79E2,2.25E2,6.9E1,1.03E2,9.2E1,1.364E3,1.37E2,7E0,3.32E2,3.76E2,3.5E1,8.7E1,1.09E2,6.82E2,1.3E1,8.61E2,1.25E2,4.4E1,2.93E2,8E0,1.4E2,2.18E2,8.9E1,3E1,3.2E1,2.8E1,2.4E1,1.66E2,1.7E1,4.8E1,2.7E1,4.56E2,1.39E2,1.94E2,5.7E1,1.23E2,3.5E1,4E0,5E0,3E0,1E0,1.1E1,7.8E1,2.99E2,1.5E1,2.85E2,8.8E1,1.5E1,2E0,4E0,3.6E1,1.6E1,7.8E1,1.6E2,1.9E1,1.97E2,2.8E1,1.333E3,3.1E1,3.49E2,2.7E1,1.05E2,4E0,9.9E1,5.83E2,3.88E2,4.73E2,2.74E2,1.9E1,1.19E2,2.1E1,2.9E1,1E0,9E0,2.3E1,1.61E2,5E0,7.7E1,3.79E2,1.38E2,1E0,1E2,9.4E1,1E0,1E1,7.7E1,1E0,2.85E2,1.4E1,1.82E2,1.03E2,3.2E1,4E0,9.8E1,6.2E1,1.14E3,1.93E2,3.18E2,3.1E1,1E0,9.8E1,4.94E2,8.9E1,7.3E1,3.15E2,4.08E2,6.5E1,2.73E2,1E0,1.49E2,2.3E2,2.18E2,6.7E1,1E0,1.3E1,1.39E2,4.3E1,9.11E2,2.29E2,1.67E2,2.6E1,4.36E2,5.8E1,2.35E2,8E1,3.43E2,6.5E1,6E0,1.43E2,3.4E1,1.96E2,1.65E2,5.3E1,1.16E2,2.3E1,5.4E1,8.57E2,1.59E2,7E1],"tree_param":{"num_deleted":"0","num_feature":"37","num_nodes":"223","size_leaf_vector":"0"}},{"base_weights":[1.117833E4,1.5246938E4,8.0602446E3,1.3089279E4,2.2226145E4,9.040258E3,5.917597E3,1.0624224E4,1.3734889E4,2.8807305E4,2.0126664E4,1.0399038E4,7.642355E3,6.690011E3,4.6677773E3,1.031094E4,3.2440023E4,1.4583202E4,1.2249889E4,2.6625709E4,3.410314E4,1.8732408E4,2.4580861E4,9.364492E3,1.244249E4,7.309765E3,1.2032604E4,5.9056035E3,7.221548E3,3.1219517E3,5.0850513E3,1.1270552E4,8.744783E3,1.4286012E4,1.8367027E4,1.0450063E4,1.2851369E4,3.242956E4,2.4085213E4,2.0679816E4,1.6388844E4,2.730756E4,2.2753566E4,8.879457E3,1.0738802E4,1.7159992E4,1.1699579E4,5.759403E3,7.947969E3,7.7901123E3,1.3184454E4,6.247261E3,5.234046E3,6.344433E3,7.7662505E3,2.7584517E3,8.229642E3,5.5037583E3,4.389987E3,1.2248588E4,1.057153E4,6.859841E3,9.219796E3,1.3786221E4,1.5642567E4,1.766935E4,2.6468695E4,9.3588125E3,1.1187318E4,1.3203892E4,9.999577E3,3.5490426E4,2.5480518E4,2.27695E4,3.304239E4,2.1826504E4,1.6817598E4,1.7088373E4,1.0734036E4,8.796761E3,1.4871875E4,1.2314946E4,1.0090316E4,2.1930729E4,1.5601797E4,1.1254429E4,1.6332595E4,4.046985E3,6.3505024E3,6.8091475E3,8.910285E3,8.505638E3,4.5306616E3,1.8645686E4,1.2414879E4,4.714554E3,6.4891016E3,5.515282E3,7.0018193E3,6.373271E3,7.989246E3,3.2386208E3,1.9607234E3,6.004695E3,4.9570073E3,4.7413164E3,3.8514578E3,1.1446579E4,1.4067697E4,1.1219015E4,9.439734E3,1.0056309E4,8.569007E3,1.4126021E4,1.1705956E4,1.5954756E4,1.2022095E4,4.879999E3,9.50694E3,1.1567074E4,8.51985E3,1.3557316E4,1.0330332E4,3.2508252E4,2.1802045E4,2.2255525E4,1.20028955E4,1.8863164E4,1.3687586E4,2.3567656E3,1.0949054E4,8.676267E3,1.2838746E4,1.2806136E4,8.0696567E3,7.2289814E3,1.0418889E4,1.5980603E4,8.23881E3,1.1034595E4,1.6568992E4,1.6512695E4,4.564275E3,5.4224536E3,3.5843752E3,7.4848E3,5.8635674E3,7.1459805E3,5.884745E3,8.771158E3,1.4845855E4,4.782485E3,1.1005635E3,5.7065815E3,4.1303877E3,8.202409E3,6.743663E3,1.7099357E3,3.4507603E3,1.4867645E3,2.3045823E3,4.9923706E3,6.443735E3,3.4120886E3,5.060687E3,1.2800735E4,9.474324E3,4.5258315E3,1.128614E4,1.3788447E4,1.5932188E4,1.4579023E4,1.6583863E4,1.3344231E4,1.7823018E4,1.376456E4,9.093458E3,4.2010617E4,1.4878822E4,2.223301E4,1.1775706E4,2.3189572E4,1.8701637E4,1.9625785E4,1.0815614E4,1.4420796E4,1.0523863E4,6.885149E3,8.9926E3,8.0324453E3,5.688553E4,9.99519E3,1.2158829E4,1.6131307E4,3.845941E3,1.0856894E4,1.3901266E4,4.7231255E3,7.694739E3,2.6359087E3,4.174509E3,4.278653E3,7.6866265E3,5.7848574E3,1.2298316E4,7.0928467E3,1.3216773E4,6.193587E3,5.0440186E3,1.3909389E4,8.627807E3,3.7736975E3,2.755294E3,2.7746997E2,1.5291201E3,2.624371E3,1.5304829E3,5.297488E3,3.0815881E3,5.1159263E3,2.6454707E3,1.427226E4,1.226847E4,1.4928504E4,9.037178E3,1.3618845E4,1.1632375E4,2.236113E4,5.479256E3,2.3501508E4,1.1526248E4,2.0233395E4,1.3902111E4,1.5956703E4,1.2150445E4,7.1137705E3,5.317767E3,8.836408E3,1.1294183E4,9.655248E3,6.0107397E3,1.653807E4,8.756059E3,1.0037496E4,1.1374799E4,5.244813E2,2.7386414E3,4.2338335E3,1.7349388E3,7.809022E3,3.1028716E3,6.1588447E3,5.0649614E3,6.905813E3,8.393313E3,8.448225E3,1.153678E4,2.862289E3,1.0522317E3,1.6155995E3,7.360635E2,1.8018654E3,2.966356E2,4.275725E3,5.3427026E3,1.4104608E4,1.916622E4,1.2769536E4,9.4482E3,4.3062207E3,1.4991665E4,1.4273098E4,1.281047E4,2.2898816E4,1.4121917E4,2.4269275E4,1.7297555E4,1.6174708E4,4.5992686E3,5.325261E3,7.3697144E3,8.0706475E3,9.123297E3,2.5629878E3,1.0158501E4,8.602091E3,1.0516049E4,1.113573E4,1.4575243E4,2.9235537E3,1.5549248E3,4.268973E3,1.2032827E3,6.364612E3,4.728036E3,3.6164321E3,5.3404546E3,6.698837E3,8.0356016E3,8.562983E3,5.6528154E3,4.3746997E2,7.4833984E0,3.7898088E3,5.7497266E3],"categories":[],"categories_nodes":[],"categories_segments":[],"categories_sizes":[],"default_left":[true,true,true,true,true,true,true,true,true,true,true,true,true,true,true,true,false,true,true,true,false,true,true,true,true,true,true,true,true,true,true,true,true,true,true,true,true,true,true,true,true,false,false,true,true,true,true,true,true,true,true,true,false,true,true,true,false,true,true,true,true,false,true,true,true,false,false,true,true,true,false,false,false,true,false,true,false,true,true,true,false,true,true,false,true,true,true,true,true,true,true,false,false,false,false,true,false,true,false,false,true,true,true,true,true,false,false,true,false,true,false,false,false,true,false,true,false,false,false,false,false,true,true,true,true,true,false,true,true,false,false,true,true,false,false,false,true,true,false,true,false,false,false,true,true,true,true,true,true,true,false,false,false,false,false,false,false,false,true,true,true,true,false,false,true,false,false,false,false,true,false,true,false,true,false,false,false,false,false,true,false,true,false,true,false,true,false,true,true,true,false,false,false,true,false,true,false,false,false,true,true,false,true,true,false,true,false,false,false,false,true,false,true,false,true,false,true,false,false,true,false,true,true,true,false,true,false,true,false,true,false,false,false,true,false,true,false,true,false,true,false,false,false,true,true,false,true,true,false,false,false,true,true,true,false,true,false,false,false,false,false,false,true,true,false,false,false,false,false,false,false,false,false,false,false,false,false,false,false,false,false,false,false,false,false,false,false,false,false,false,false,false,false,false,false,false,false,false,false,false,false,false,false,false,false],"id":2,"left_children":[1,3,5,7,9,11,13,15,17,19,21,23,25,27,29,31,-1,33,35,37,-1,39,41,43,45,47,49,51,53,55,57,59,61,63,65,67,69,71,73,75,77,-1,-1,79,81,83,85,87,89,91,93,95,-1,97,99,101,-1,103,105,107,109,-1,111,113,115,-1,-1,117,119,121,-1,-1,-1,123,-1,125,-1,127,129,131,-1,133,135,-1,137,139,141,143,145,147,149,-1,-1,-1,-1,151,-1,153,-1,-1,155,157,159,161,163,-1,-1,165,-1,167,-1,-1,-1,169,-1,171,-1,-1,-1,-1,-1,173,175,177,179,181,-1,183,185,-1,-1,187,189,-1,-1,-1,191,193,-1,195,-1,-1,-1,197,199,201,203,205,207,209,-1,-1,-1,-1,-1,-1,-1,-1,211,213,215,217,-1,-1,219,-1,-1,-1,-1,221,-1,223,-1,225,-1,-1,-1,-1,-1,227,-1,229,-1,231,-1,233,-1,235,237,239,-1,-1,-1,241,-1,243,-1,-1,-1,245,247,-1,249,251,-1,253,-1,-1,-1,-1,255,-1,257,-1,259,-1,261,-1,-1,263,-1,265,267,269,-1,271,-1,273,-1,275,-1,-1,-1,277,-1,279,-1,281,-1,283,-1,-1,-1,285,287,-1,289,291,-1,-1,-1,293,295,297,-1,299,-1,-1,-1,-1,-1,-1,301,303,-1,-1,-1,-1,-1,-1,-1,-1,-1,-1,-1,-1,-1,-1,-1,-1,-1,-1,-1,-1,-1,-1,-1,-1,-1,-1,-1,-1,-1,-1,-1,-1,-1,-1,-1,-1,-1,-1,-1,-1,-1],"loss_changes":[1.0929616E11,5.6043897E10,1.0204152E10,4.4056904E9,1.1606852E10,6.283657E9,1.4515937E9,3.7525627E9,2.672132E9,1.5297413E9,3.7128765E9,3.4689024E9,2.3285924E9,3.5219866E8,3.6469453E8,7.8965555E8,0E0,1.3513196E9,7.6314214E8,1.4896005E9,0E0,2.0160348E9,1.6090726E8,6.578913E8,1.7863885E9,1.4789673E9,4.5926298E8,5.632512E7,2.1827584E8,2.1494938E8,1.1058586E8,1.186857E8,1.4179533E8,6.894715E8,1.0320282E8,6.666445E7,4.882514E8,3.1567872E7,5.5578214E8,8.641249E8,7.619871E8,0E0,0E0,2.8593357E8,1.7214669E8,2.1537178E8,8.329421E8,4.3283046E8,1.1327734E9,2.4433792E7,1.4256742E8,6.2816256E7,0E0,8.129946E7,5.500723E7,3.9998336E7,0E0,4.8292864E7,1.560576E7,5.0520064E7,5.4583296E7,0E0,1.1817984E7,5.3020262E8,2.0604518E8,0E0,0E0,1.4642176E7,2.5033728E7,4.1445786E8,0E0,0E0,0E0,2.3343514E8,0E0,6.2214144E8,0E0,1.01533696E9,2.6432256E7,2.9382246E8,0E0,6.347776E7,1.2305408E8,0E0,3.5687424E7,3.464192E8,1.1531264E7,5.628416E7,1.4114202E8,1.1456717E8,3.5452928E8,0E0,0E0,0E0,0E0,4.0656E6,0E0,3.452416E6,0E0,0E0,2.1684224E7,1.8097216E7,4.396432E6,3.183104E7,5.477376E6,0E0,0E0,1.6181965E8,0E0,9.12384E6,0E0,0E0,0E0,2.9309338E8,0E0,3.60448E7,0E0,0E0,0E0,0E0,0E0,2.0119552E8,1.4668595E8,5.475809E8,1.4436352E8,2.3352934E8,0E0,6.223995E8,2.4532992E7,0E0,0E0,3.9759053E8,4.2005158E9,0E0,0E0,0E0,1.6328704E7,4.036915E7,0E0,7.220019E7,0E0,0E0,0E0,8.150848E6,4.049075E7,2.9878784E7,4.990515E7,2.3668736E7,5.110784E6,3.0425498E8,0E0,0E0,0E0,0E0,0E0,0E0,0E0,0E0,3.976256E6,7.53788E5,2.419696E6,1.1660032E7,0E0,0E0,3.943424E6,0E0,0E0,0E0,0E0,3.514368E8,0E0,7.619584E7,0E0,5.9703296E7,0E0,0E0,0E0,0E0,0E0,6.851379E7,0E0,2.9303603E8,0E0,1.4647706E8,0E0,1.1853824E7,0E0,7.3216E6,1.4680883E8,1.0862208E7,0E0,0E0,0E0,2.0190208E7,0E0,6.2787584E7,0E0,0E0,0E0,6.80632E6,6.14528E5,0E0,2.6262016E7,3.2882688E7,0E0,3.033088E7,0E0,0E0,0E0,0E0,1.9664896E8,0E0,1.361456E6,0E0,3.1964E5,0E0,2.813948E6,0E0,0E0,1.354496E6,0E0,1.7026253E8,1.3371597E8,3.20512E6,0E0,2.5534464E7,0E0,6.6473984E7,0E0,2.9467443E8,0E0,0E0,0E0,4.839936E6,0E0,9.734656E6,0E0,6.85056E7,0E0,9.655872E6,0E0,0E0,0E0,2.63168E7,2.74432E7,0E0,3.33392E6,5.07328E5,0E0,0E0,0E0,1.465856E7,1.54048E7,2.1700608E7,0E0,1.2290048E8,0E0,0E0,0E0,0E0,0E0,0E0,1.1889394E5,1.129344E6,0E0,0E0,0E0,0E0,0E0,0E0,0E0,0E0,0E0,0E0,0E0,0E0,0E0,0E0,0E0,0E0,0E0,0E0,0E0,0E0,0E0,0E0,0E0,0E0,0E0,0E0,0E0,0E0,0E0,0E0,0E0,0E0,0E0,0E0,0E0,0E0,0E0,0E0,0E0,0E0,0E0],"parents":[2147483647,0,0,1,1,2,2,3,3,4,4,5,5,6,6,7,7,8,8,9,9,10,10,11,11,12,12,13,13,14,14,15,15,17,17,18,18,19,19,21,21,22,22,23,23,24,24,25,25,26,26,27,27,28,28,29,29,30,30,31,31,32,32,33,33,34,34,35,35,36,36,37,37,38,38,39,39,40,40,43,43,44,44,45,45,46,46,47,47,48,48,49,49,50,50,51,51,53,53,54,54,55,55,57,57,58,58,59,59,60,60,62,62,63,63,64,64,67,67,68,68,69,69,73,73,75,75,77,77,78,78,79,79,81,81,82,82,84,84,85,85,86,86,87,87,88,88,89,89,90,90,95,95,97,97,100,100,101,101,102,102,103,103,104,104,107,107,109,109,113,113,115,115,121,121,122,122,123,123,124,124,125,125,127,127,128,128,131,131,132,132,136,136,137,137,139,139,143,143,144,144,145,145,146,146,147,147,148,148,149,149,158,158,159,159,160,160,161,161,164,164,169,169,171,171,173,173,179,179,181,181,183,183,185,185,187,187,188,188,189,189,193,193,195,195,199,199,200,200,202,202,203,203,205,205,210,210,212,212,214,214,216,216,219,219,221,221,222,222,223,223,225,225,227,227,229,229,233,233,235,235,237,237,239,239,243,243,244,244,246,246,247,247,251,251,252,252,253,253,255,255,262,262,263,263],"right_children":[2,4,6,8,10,12,14,16,18,20,22,24,26,28,30,32,-1,34,36,38,-1,40,42,44,46,48,50,52,54,56,58,60,62,64,66,68,70,72,74,76,78,-1,-1,80,82,84,86,88,90,92,94,96,-1,98,100,102,-1,104,106,108,110,-1,112,114,116,-1,-1,118,120,122,-1,-1,-1,124,-1,126,-1,128,130,132,-1,134,136,-1,138,140,142,144,146,148,150,-1,-1,-1,-1,152,-1,154,-1,-1,156,158,160,162,164,-1,-1,166,-1,168,-1,-1,-1,170,-1,172,-1,-1,-1,-1,-1,174,176,178,180,182,-1,184,186,-1,-1,188,190,-1,-1,-1,192,194,-1,196,-1,-1,-1,198,200,202,204,206,208,210,-1,-1,-1,-1,-1,-1,-1,-1,212,214,216,218,-1,-1,220,-1,-1,-1,-1,222,-1,224,-1,226,-1,-1,-1,-1,-1,228,-1,230,-1,232,-1,234,-1,236,238,240,-1,-1,-1,242,-1,244,-1,-1,-1,246,248,-1,250,252,-1,254,-1,-1,-1,-1,256,-1,258,-1,260,-1,262,-1,-1,264,-1,266,268,270,-1,272,-1,274,-1,276,-1,-1,-1,278,-1,280,-1,282,-1,284,-1,-1,-1,286,288,-1,290,292,-1,-1,-1,294,296,298,-1,300,-1,-1,-1,-1,-1,-1,302,304,-1,-1,-1,-1,-1,-1,-1,-1,-1,-1,-1,-1,-1,-1,-1,-1,-1,-1,-1,-1,-1,-1,-1,-1,-1,-1,-1,-1,-1,-1,-1,-1,-1,-1,-1,-1,-1,-1,-1,-1,-1],"split_conditions":[1.32475E4,2.5E0,5E-1,1.8E0,3.38E1,3.4028E4,4.69535E4,5E-1,6.002E3,5E-1,5E-1,2.6E0,5E-1,1.225E2,2.0125E3,5.946E3,9.732008E3,5E-1,2.0185E3,2.68E1,1.0230942E4,5.5545E3,5.057E3,2.0175E3,3.625E1,2.0145E3,2.0135E3,7.15E1,1.8E0,5E-1,5E-1,4.38E1,2.0175E3,2.0195E3,5E-1,2.0175E3,5E-1,5E-1,5E-1,4.915E1,5E-1,8.192269E3,6.8260703E3,5E-1,1.583E4,2.795E1,5E-1,2.0125E3,1.3E2,8.39E4,4.38E1,2.0145E3,1.5702139E3,2.0165E3,2.0145E3,8.8778E4,2.4688926E3,6.42715E4,6.3765E4,2.0195E3,5E-1,2.0579524E3,5E-1,5E-1,5E-1,5.300805E3,7.940609E3,2.0145E3,5E-1,5E-1,2.9998733E3,1.0647128E4,7.644156E3,2.0175E3,9.912718E3,5E-1,5.0452793E3,4.915E1,6.3335E3,3.34155E4,4.4615625E3,5E-1,1.75E0,6.5792188E3,5E-1,5E-1,3.37705E4,6.0871E4,5.09E1,6.44585E4,5E-1,2.5516914E3,1.3591985E3,5.593706E3,3.7244639E3,7.5E1,1.9467306E3,4.0992E4,2.100546E3,1.9119813E3,6.495E1,2.0065E3,5.05E1,2.0145E3,1.8E0,1.422395E3,1.1554374E3,5E-1,4.2203096E3,7.75E1,2.8319204E3,3.0168926E3,2.5707021E3,5E-1,3.5117869E3,6.8E1,3.6066287E3,1.4639998E3,2.8520823E3,3.4701223E3,2.555955E3,5E-1,4.12E1,5.1425E3,5E-1,5E-1,3.600869E3,5E-1,5E-1,7.070297E2,3.2847163E3,2.0155E3,5E-1,3.8418408E3,2.4208972E3,2.1686946E3,5E-1,5E-1,2.471643E3,5E-1,4.9706978E3,4.9538086E3,1.3692825E3,2.925E2,2.0095E3,1.8E0,5E-1,5E-1,8.4565E4,3.535E1,4.453757E3,1.4347455E3,3.3016907E2,1.7119745E3,1.2391163E3,2.460723E3,2.023099E3,5.129807E2,5E-1,1.575E2,1.14727E5,5E-1,1.9331205E3,1.02362665E3,1.19899E5,3.8402207E3,2.8422974E3,1.3577495E3,3.385842E3,5.95E1,4.7796567E3,1.85E1,4.975159E3,5E-1,5.3469053E3,4.129368E3,2.7280376E3,1.2603186E4,4.463647E3,5E-1,3.532712E3,5E-1,5.610491E3,5E-1,3.2446843E3,5E-1,3.1571592E3,6.65E1,5E-1,5E-1,1.706566E4,2.9985571E3,3.647649E3,5E-1,1.1537823E3,2.0165E3,4.17038E3,1.4169377E3,2.3084216E3,2.0005E3,6.35E1,1.283596E3,8.55175E4,6.78085E4,3.689495E3,5E-1,3.9650322E3,1.8580762E3,1.5132056E3,4.172817E3,5E-1,1.1321093E3,1.575E2,8.3241E1,4.875E1,7.8731134E2,5E-1,1.5892465E3,9.244765E2,2.5E1,7.9364124E2,5E-1,5E-1,2.5E0,2.7111533E3,5E-1,3.4897126E3,5E-1,1.6437769E3,5E-1,3.4578745E3,6.0700186E3,4.170634E3,1.2961E4,3.6451338E3,1.8E0,1.5953302E3,7.75E1,3.388255E3,2.0145E3,1.803222E3,4.9614214E3,2.6268176E3,1.55E2,5E-1,1.573444E2,1.215115E5,5E-1,5.204817E2,2.3427068E3,9.308615E2,6.35E1,1.225E2,5E-1,2.5179941E3,8.53225E4,3.4610342E3,8.5868677E2,3.1566953E2,4.8467987E2,2.2081905E2,5.4055963E2,2.0095E3,5E-1,1.6028109E3,4.231383E3,5.749866E3,3.830861E3,2.8344602E3,1.2918662E3,4.4974995E3,4.2819297E3,3.843141E3,6.869645E3,4.236575E3,7.2807827E3,5.1892666E3,4.8524126E3,1.3797806E3,1.5975785E3,2.2109143E3,2.4211943E3,2.7369893E3,7.6889636E2,3.0475503E3,2.5806274E3,3.1548147E3,3.3407192E3,4.372573E3,8.7706616E2,4.6647745E2,1.280692E3,3.6098483E2,1.9093837E3,1.4184109E3,1.0849297E3,1.6021365E3,2.0096511E3,2.4106807E3,2.568895E3,1.6958447E3,1.31241E2,2.2450197E0,1.1369427E3,1.7249181E3],"split_indices":[33,36,30,36,35,33,33,23,33,24,17,36,17,34,32,33,0,15,32,35,0,33,33,32,35,32,32,35,36,9,0,35,32,32,26,32,1,15,7,35,0,0,0,17,33,35,17,32,34,33,35,32,0,32,32,33,0,33,33,32,0,0,0,1,30,0,0,32,1,0,0,0,0,32,0,1,0,35,33,33,0,1,36,0,0,18,33,33,35,33,18,0,0,0,0,34,0,33,0,0,35,32,35,32,36,0,0,1,0,34,0,0,0,4,0,33,0,0,0,0,0,16,35,33,1,2,0,1,2,0,0,32,1,0,0,0,4,21,0,6,0,0,0,34,32,36,23,23,33,35,0,0,0,0,0,0,0,0,0,34,33,13,0,0,33,0,0,0,0,35,0,33,0,3,0,0,0,0,0,0,0,0,0,3,0,3,0,35,15,29,0,0,0,1,0,32,0,0,0,32,35,0,33,33,0,13,0,0,0,0,16,0,34,0,35,0,0,0,0,34,0,16,0,33,0,2,0,21,0,3,0,0,0,33,0,36,0,34,0,32,0,0,0,34,15,0,33,5,0,0,0,35,34,3,0,33,0,0,0,0,0,0,32,13,0,0,0,0,0,0,0,0,0,0,0,0,0,0,0,0,0,0,0,0,0,0,0,0,0,0,0,0,0,0,0,0,0,0,0,0,0,0,0,0,0],"split_type":[0,0,0,0,0,0,0,0,0,0,0,0,0,0,0,0,0,0,0,0,0,0,0,0,0,0,0,0,0,0,0,0,0,0,0,0,0,0,0,0,0,0,0,0,0,0,0,0,0,0,0,0,0,0,0,0,0,0,0,0,0,0,0,0,0,0,0,0,0,0,0,0,0,0,0,0,0,0,0,0,0,0,0,0,0,0,0,0,0,0,0,0,0,0,0,0,0,0,0,0,0,0,0,0,0,0,0,0,0,0,0,0,0,0,0,0,0,0,0,0,0,0,0,0,0,0,0,0,0,0,0,0,0,0,0,0,0,0,0,0,0,0,0,0,0,0,0,0,0,0,0,0,0,0,0,0,0,0,0,0,0,0,0,0,0,0,0,0,0,0,0,0,0,0,0,0,0,0,0,0,0,0,0,0,0,0,0,0,0,0,0,0,0,0,0,0,0,0,0,0,0,0,0,0,0,0,0,0,0,0,0,0,0,0,0,0,0,0,0,0,0,0,0,0,0,0,0,0,0,0,0,0,0,0,0,0,0,0,0,0,0,0,0,0,0,0,0,0,0,0,0,0,0,0,0,0,0,0,0,0,0,0,0,0,0,0,0,0,0,0,0,0,0,0,0,0,0,0,0,0,0,0,0,0,0,0,0,0,0,0,0,0,0,0,0,0,0,0,0,0,0,0,0,0,0],"sum_hessian":[8.624E3,3.74E3,4.884E3,2.859E3,8.81E2,3.349E3,1.535E3,5.97E2,2.262E3,2.1E2,6.71E2,1.695E3,1.654E3,9.46E2,5.89E2,5.9E2,7E0,1.434E3,8.28E2,1.53E2,5.7E1,5.15E2,1.56E2,1.129E3,5.66E2,1.54E3,1.14E2,3.87E2,5.59E2,1.27E2,4.62E2,3.62E2,2.28E2,1.334E3,1E2,2.12E2,6.16E2,4.3E1,1.1E2,2.77E2,2.38E2,5.7E1,9.9E1,8.4E2,2.89E2,7.4E1,4.92E2,4.52E2,1.088E3,2.6E1,8.8E1,2.51E2,1.36E2,2.19E2,3.4E2,1.2E2,7E0,2.84E2,1.78E2,1.44E2,2.18E2,4.9E1,1.79E2,9.83E2,3.51E2,9.5E1,5E0,9.1E1,1.21E2,5.45E2,7.1E1,2.7E1,1.6E1,9.9E1,1.1E1,2.1E2,6.7E1,2.1E2,2.8E1,8.31E2,9E0,7.9E1,2.1E2,1.5E1,5.9E1,4.52E2,4E1,1.18E2,3.34E2,5.02E2,5.86E2,2E1,6E0,8E0,8E1,3.7E1,2.14E2,1.01E2,1.18E2,5.1E1,2.89E2,7.3E1,4.7E1,1.43E2,1.41E2,1.03E2,7.5E1,1.05E2,3.9E1,1.33E2,8.5E1,7.2E1,1.07E2,8.4E2,1.43E2,3.2E2,3.1E1,4E0,8.7E1,1.03E2,1.8E1,4.82E2,6.3E1,6E0,9.3E1,2E2,1E1,1.35E2,7.5E1,1E0,2.7E1,8.1E2,2.1E1,6.9E1,1E1,2.4E1,1.86E2,5.5E1,4E0,4.37E2,1.5E1,3.9E1,1E0,2.7E1,9.1E1,9.6E1,2.38E2,3.63E2,1.39E2,5.75E2,1.1E1,3.6E1,1E0,8.6E1,1.5E1,2.42E2,4.7E1,1E1,6.3E1,2.2E1,2.5E1,4.7E1,9.6E1,1.1E1,1.3E2,5.9E1,4.6E1,2E0,1.31E2,7.15E2,1.25E2,1.08E2,2.12E2,4.63E2,1.9E1,1.4E1,4.9E1,3E0,3E0,8.8E1,5E0,1.54E2,4.6E1,1.22E2,1.3E1,5.8E1,1.7E1,1.25E2,6.85E2,2E1,1E0,1.55E2,3.1E1,5.4E1,1E0,4.16E2,2.1E1,2.3E1,4E0,3.7E1,5.4E1,7E0,8.9E1,2.37E2,1E0,3.62E2,1E0,9.7E1,4.2E1,1.3E1,5.62E2,4E1,2.3E1,1E0,2.1E1,1.6E1,9E0,3.9E1,8E0,1.26E2,4E0,5.36E2,1.79E2,1E2,8E0,3.93E2,7E1,8.7E1,1E0,1.49E2,5E0,1.08E2,1.4E1,3.1E1,2.7E1,1.06E2,1.9E1,6.46E2,3.9E1,9E0,1.1E1,5E1,4E0,1.69E2,2.47E2,2E0,3.5E1,5.2E1,2E0,8.6E1,3E0,1.51E2,8.6E1,3.22E2,4E1,5.33E2,2.9E1,2.1E1,2E0,1.8E1,3E0,7E0,2E0,3.1E1,9.5E1,5.22E2,1.4E1,1.49E2,3E1,1E0,9.9E1,2.08E2,1.85E2,8E1,7E0,1.3E2,1.9E1,3E1,1E0,1.6E1,9E1,1.84E2,4.62E2,1E0,8E0,4.7E1,1.22E2,2.34E2,1.3E1,2.9E1,6E0,5.1E1,1E0,1.29E2,2.2E1,1.6E1,7E1,2.78E2,4.4E1,5.1E2,2.3E1,1E0,1E0,2.6E1,5E0],"tree_param":{"num_deleted":"0","num_feature":"37","num_nodes":"305","size_leaf_vector":"0"}},{"base_weights":[7.8806846E3,1.0919954E4,5.799958E3,9.33059E3,1.6037227E4,5.212227E3,7.693768E3,9.77714E3,7.3234814E3,2.0535826E4,1.4516766E4,4.481037E3,6.40293E3,7.1824473E3,1.1374412E4,9.720712E3,2.3924516E4,7.97632E3,5.7565903E3,2.1141543E4,1.3001264E4,1.3556464E4,1.7480701E4,4.99583E3,3.5007192E3,6.139977E3,8.605417E3,7.8162876E3,5.015098E3,1.781291E4,1.0556595E4,1.0447228E4,8.780361E3,7.759382E3,9.566605E3,6.2757617E3,4.8670645E3,2.1361393E4,5.5781836E3,1.322963E4,2.4153984E4,2.0635062E4,1.647714E4,5.599203E3,4.2056206E3,2.0989807E3,3.8381802E3,5.6400913E3,7.0527417E3,9.336953E3,7.171049E3,7.509255E3,1.0295377E4,3.2651733E3,5.47203E3,1.8503318E4,4.0735986E3,9.703202E3,1.5121339E4,1.022843E4,1.3189124E4,6.882703E3,9.09209E3,7.507833E3,8.907218E3,3.6492656E3,6.3873286E3,2.1908775E4,1.3032392E4,1.2714765E4,2.0237021E4,9.649019E3,1.669388E4,5.4760103E3,1.1010283E4,4.60657E3,3.725121E3,1.3131965E3,2.339926E3,4.0854521E3,2.837321E3,5.5077954E3,8.451799E3,7.4268403E3,5.6235645E3,2.6190312E3,9.378356E3,5.1059873E3,7.92105E3,1.0353843E4,7.2597686E3,7.052716E3,1.108607E4,5.9553237E3,2.5795671E3,6.61956E3,4.860294E3,1.927347E4,4.245676E3,1.0293999E4,7.3076597E3,1.0544381E4,8.790364E3,1.2540789E4,1.9851521E4,5.6899106E3,7.3752603E3,9.359369E3,7.0089175E3,7.231491E3,8.693786E3,9.833379E3,6.5309414E3,2.232819E4,1.0414912E4,1.2153833E4,1.7936096E4,2.1866807E4,1.3021766E4,5.4390815E3,1.445855E4,3.7942214E3,4.8440874E3,4.204708E3,3.5308938E3,2.0105524E3,1.0542355E3,2.1570706E3,3.8820586E3,4.0146345E3,7.119731E3,2.98738E3,2.273881E3,5.3761714E3,7.9696753E3,7.837921E3,6.250877E3,5.8031606E3,3.4089246E3,1.0573566E4,2.87428E3,6.0357036E3,7.668764E3,7.204217E3,2.0870957E3,1.4165206E4,9.889252E3,6.3094985E3,1.383875E3,2.8495417E3,1.6221727E3,7.7112456E3,5.2086934E3,5.1196943E3,3.6907175E3,1.07230625E4,6.960772E3,1.3670559E4,1.0435527E4,1.2143386E4,8.598405E3,1.6093359E3,5.746075E3,7.640617E3,5.587523E3,9.768314E3,7.813017E3,7.0499175E3,1.5364541E3,7.512623E3,6.294104E3,2.2690229E4,8.831779E3,1.1288191E4,1.5473512E4,4.338482E3,5.685804E3,1.2216763E3,3.9009097E3,5.2175444E3,3.8883445E3,2.7582397E3,3.6101194E3,9.649643E2,2.3208096E3,1.2832145E3,7.091782E2,2.340091E3,1.5399384E3,4.0908162E3,7.9286206E2,3.876327E3,5.4160703E3,2.3339956E3,8.9473975E2,5.754521E3,4.231266E3,8.725829E3,5.1829214E3,5.9709478E3,8.1111113E3,6.0322583E3,1.3947064E4,5.9299478E3,3.7306487E3,1.7823079E3,4.1962847E3,2.8269136E3,1.0664673E4,6.2381753E3,5.0125654E3,7.5252046E3,1.1355543E4,1.0862318E3,3.1256245E3,3.754143E2,1.7013859E3,7.8580674E3,1.4330608E3,5.5829893E3,3.1278242E3,5.3511426E3,3.4051223E3,3.7929446E3,5.164072E2,1.1241473E4,7.830869E3,1.0357157E4,1.4992097E4,9.247004E3,7.837879E3,7.684961E3,2.068732E3,1.0405915E4,8.869031E3,7.44667E3,1.1270012E4,2.4952449E3,6.388594E3,2.3113438E4,1.2927527E4,1.4269047E4,1.0818687E4,1.6331647E4,1.1904046E4,4.502237E3,3.069426E3,5.1166777E3,6.225074E3,4.1493213E3,2.819621E3,5.9130874E3,4.286279E3,3.403782E3,4.0056108E3,3.1293347E2,1.321882E3,-5.0238037E0,7.605515E2,2.210804E3,2.9531272E3,2.5143689E2,1.5769763E3,3.732805E3,5.0503105E3,5.4692437E3,1.5382139E3,4.568235E3,5.9868237E3,4.1017705E3,5.2489995E3,1.0103748E4,6.6743276E3,7.4593774E3,8.641949E3,1.0754497E4,2.9520015E3,6.703115E3,5.5109087E3,6.841084E3,8.0663755E3,3.2090735E3,4.3625342E2,5.707214E3,1.3007983E3,3.402193E3,7.4080566E2,5.4393657E3,2.781119E3,1.1329894E4,2.8796865E3,9.995104E3,1.1145917E4,2.4084707E3,9.290015E3,8.599116E3,6.796503E3,4.1611807E3,7.8174136E3,1.079969E4,7.83862E3,1.0296728E4,7.859747E3,7.745698E3,5.7134683E3,2.3216172E4,3.6974873E3,3.5422412E3,1.4453266E4,1.0352318E4,1.2738278E4,1.2436105E4,4.921029E3,3.6468257E3,4.93212E3,5.75613E3,4.68445E3,3.7667224E3,6.419886E3,8.728906E2,4.185739E3,4.569811E3,3.4554517E3,2.8197761E3,4.2432725E3,3.476244E2,1.3610465E3,1.7952684E3,1.1363146E3,3.6795283E3,6.9377173E3,4.800249E3,2.9180032E3,6.3240127E3,5.104978E3,4.1146606E3,8.843457E2,9.269161E3,6.7673145E3,8.99653E3,5.9435376E3,1.0842719E4,3.0834932E3,6.7434893E3,1.7164072E3,7.14501E3,6.059206E3,7.857955E3,1.0857873E4,2.3007214E3,3.6080615E3,5.9032446E3,2.367249E3],"categories":[],"categories_nodes":[],"categories_segments":[],"categories_sizes":[],"default_left":[true,true,true,true,true,true,true,true,true,true,true,true,true,true,true,true,false,true,true,true,false,true,true,true,true,true,true,true,true,true,true,true,true,true,false,true,false,true,false,true,false,false,true,true,true,true,true,true,true,true,true,true,true,true,true,true,false,true,false,true,true,true,true,true,true,false,false,true,false,true,true,false,false,true,false,true,true,true,true,true,true,true,false,true,true,false,false,false,false,true,true,true,true,true,true,true,true,false,false,true,false,true,true,false,false,true,true,true,true,true,false,false,false,true,false,true,false,false,false,true,false,true,true,false,true,true,true,true,true,true,false,false,true,true,true,true,true,true,true,true,false,true,true,false,false,false,false,false,false,true,true,true,true,true,true,true,false,false,true,false,true,false,false,true,false,true,true,false,false,false,true,true,false,true,true,true,true,false,true,true,false,false,true,false,false,true,true,true,true,false,false,true,true,false,false,true,true,true,false,false,true,false,false,false,false,false,false,false,true,true,false,true,false,false,true,false,false,false,false,true,true,true,false,false,false,true,false,true,false,true,true,true,false,true,true,true,false,false,false,true,false,true,true,false,true,true,false,true,true,true,false,false,true,false,true,false,true,false,false,false,false,false,true,true,false,false,false,true,true,true,false,false,false,true,true,true,false,true,false,true,true,true,false,true,false,false,false,false,false,false,false,false,false,false,false,false,false,false,false,false,false,false,false,false,false,false,false,false,false,false,false,false,false,false,false,false,false,false,false,false,false,false,false,false,false,false,false,false,false,false,false,false,false,false,false,false,false,false,false,false,false,false,false,false,false,false,false,false,false,false,false,false,false],"id":3,"left_children":[1,3,5,7,9,11,13,15,17,19,21,23,25,27,29,31,-1,33,35,37,-1,39,41,43,45,47,49,51,53,55,57,59,61,63,-1,65,-1,67,-1,69,-1,-1,71,73,75,77,79,81,83,85,87,89,91,93,95,97,-1,99,-1,101,103,105,107,109,111,-1,-1,113,-1,115,117,-1,-1,119,-1,121,123,125,127,129,131,133,-1,135,137,-1,-1,-1,-1,139,141,143,145,147,149,151,153,-1,-1,155,-1,157,159,-1,-1,161,163,165,167,169,-1,-1,-1,171,-1,173,-1,-1,-1,175,-1,177,179,-1,181,183,185,187,189,191,-1,-1,193,195,197,199,201,203,205,207,-1,209,211,-1,-1,-1,-1,-1,-1,213,215,217,219,221,223,225,-1,-1,227,-1,229,-1,-1,231,-1,233,235,-1,-1,-1,237,239,-1,241,243,245,247,-1,249,251,-1,-1,253,-1,-1,255,257,259,261,-1,-1,263,265,-1,-1,267,269,271,-1,-1,273,-1,-1,-1,-1,-1,-1,-1,275,277,-1,279,-1,-1,281,-1,-1,-1,-1,283,285,287,-1,-1,-1,289,-1,291,-1,293,295,297,-1,299,301,303,-1,-1,-1,305,-1,307,309,-1,311,313,-1,315,317,319,-1,-1,321,-1,323,-1,325,-1,-1,-1,-1,-1,327,329,-1,-1,-1,331,333,335,-1,-1,-1,337,339,341,-1,343,-1,345,347,349,-1,351,-1,-1,-1,-1,-1,-1,-1,-1,-1,-1,-1,-1,-1,-1,-1,-1,-1,-1,-1,-1,-1,-1,-1,-1,-1,-1,-1,-1,-1,-1,-1,-1,-1,-1,-1,-1,-1,-1,-1,-1,-1,-1,-1,-1,-1,-1,-1,-1,-1,-1,-1,-1,-1,-1,-1,-1,-1,-1,-1,-1,-1,-1,-1,-1,-1,-1,-1,-1,-1],"loss_changes":[5.4480142E10,2.834917E10,5.6609505E9,2.326823E9,5.372199E9,3.3772175E9,2.1973893E9,1.5125381E9,4.5633946E8,6.6984346E8,1.536254E9,1.2073206E9,8.0778035E8,1.4252196E9,5.8072064E8,1.3969162E9,0E0,4.4447744E7,3.780403E7,5.309399E8,0E0,1.3256704E9,1.3166592E8,7.340728E8,3.8881792E8,5.675295E8,9.673318E7,5.4912614E8,1.7723443E8,6.691123E7,3.6748288E8,5.9940045E8,5.0294784E8,2.205696E7,0E0,3.063552E6,0E0,5.6703386E8,0E0,1.4131282E9,0E0,0E0,1.3551616E7,5.3831885E8,1.1615846E8,2.8166784E7,1.5545958E8,2.7521024E8,2.0791706E8,3.252224E6,4.783693E7,4.4716032E8,1.4743962E8,8.239021E7,1.0260838E8,7.189862E7,0E0,8.611635E7,0E0,4.2437018E8,1.2683981E8,3.970048E7,3.8985728E8,2.2011904E7,4.581965E7,0E0,0E0,6.0624896E8,0E0,1.0531144E9,6.803456E7,0E0,0E0,2.1326848E8,0E0,5.3589504E7,1.4961664E7,5.284512E6,2.687456E7,8.723763E7,4.7904E6,2.2578586E8,0E0,1.2841984E8,2.038912E7,0E0,0E0,0E0,0E0,6.3284736E7,2.9414605E8,1.0112E4,1.141929E8,7.45936E6,6.750336E6,5.840896E7,2.0241664E7,0E0,0E0,5.2644864E7,0E0,1.7313792E8,3.1394816E7,0E0,0E0,1.065856E6,2.374656E6,3.8025216E8,1.0931712E7,9.636864E6,0E0,0E0,0E0,6.156042E8,0E0,9.604219E8,0E0,0E0,0E0,2.1374771E8,0E0,1.9661312E7,8.143667E7,0E0,4.366336E6,1.004516E6,1.61832E6,9.272448E6,4.495264E6,8.154163E7,0E0,0E0,6.47584E5,3.1785984E8,3.906355E7,8.825958E7,8.412058E7,2.052096E6,5.328256E6,8.669184E6,0E0,4.983296E6,1.8235802E8,0E0,0E0,0E0,0E0,0E0,0E0,1.2669888E7,5.4639E5,2.0079104E7,6.682112E6,2.2652672E7,6.802816E6,2.7418624E7,0E0,0E0,1.6646144E8,0E0,2.765824E7,0E0,0E0,3.86816E6,0E0,2.3281664E8,1.1364352E8,0E0,0E0,0E0,4.160512E6,3.7053235E8,0E0,2.8928E8,4.7570944E7,2.0470016E7,1.8728346E8,0E0,1.1131904E7,1.054976E8,0E0,0E0,3.421184E6,0E0,0E0,2.61668E5,5.541845E5,2.8736E5,9.87464E5,0E0,0E0,6.2866944E7,8.66048E5,0E0,0E0,1.355182E8,4.828416E6,1.736832E7,0E0,0E0,1.5454208E7,0E0,0E0,0E0,0E0,0E0,0E0,0E0,5.66272E6,1.107456E7,0E0,1.2623053E8,0E0,0E0,4.883936E6,0E0,0E0,0E0,0E0,5.87488E6,2.064096E6,5.05216E6,0E0,0E0,0E0,1.3953024E7,0E0,1.4246707E8,0E0,8.214528E6,2.0829184E7,4.342272E6,0E0,2.4491213E8,2.677801E8,3.0377472E7,0E0,0E0,0E0,2.2134784E8,0E0,2.7846656E7,1.1700429E8,0E0,9.393664E6,3.496627E7,0E0,7.060173E7,1.4918451E8,4.340608E6,0E0,0E0,5.410176E6,0E0,6.63552E6,0E0,1.75526E5,0E0,0E0,0E0,0E0,0E0,6.53416E5,4.8918016E7,0E0,0E0,0E0,2.4663424E7,1.1371315E8,3.90912E6,0E0,0E0,0E0,7.629824E7,6.230221E7,2.434048E6,0E0,4.934912E6,0E0,9.698304E6,7.060275E7,1.484224E6,0E0,1.7392E6,0E0,0E0,0E0,0E0,0E0,0E0,0E0,0E0,0E0,0E0,0E0,0E0,0E0,0E0,0E0,0E0,0E0,0E0,0E0,0E0,0E0,0E0,0E0,0E0,0E0,0E0,0E0,0E0,0E0,0E0,0E0,0E0,0E0,0E0,0E0,0E0,0E0,0E0,0E0,0E0,0E0,0E0,0E0,0E0,0E0,0E0,0E0,0E0,0E0,0E0,0E0,0E0,0E0,0E0,0E0,0E0,0E0,0E0,0E0,0E0,0E0,0E0,0E0,0E0,0E0,0E0,0E0,0E0,0E0],"parents":[2147483647,0,0,1,1,2,2,3,3,4,4,5,5,6,6,7,7,8,8,9,9,10,10,11,11,12,12,13,13,14,14,15,15,17,17,18,18,19,19,21,21,22,22,23,23,24,24,25,25,26,26,27,27,28,28,29,29,30,30,31,31,32,32,33,33,35,35,37,37,39,39,42,42,43,43,44,44,45,45,46,46,47,47,48,48,49,49,50,50,51,51,52,52,53,53,54,54,55,55,57,57,59,59,60,60,61,61,62,62,63,63,64,64,67,67,69,69,70,70,73,73,75,75,76,76,77,77,78,78,79,79,80,80,81,81,83,83,84,84,89,89,90,90,91,91,92,92,93,93,94,94,95,95,96,96,99,99,101,101,102,102,105,105,106,106,107,107,108,108,109,109,113,113,115,115,119,119,121,121,122,122,124,124,125,125,126,126,127,127,128,128,129,129,132,132,133,133,134,134,135,135,136,136,137,137,138,138,139,139,141,141,142,142,149,149,150,150,151,151,152,152,153,153,154,154,155,155,158,158,160,160,163,163,165,165,166,166,170,170,171,171,173,173,174,174,175,175,176,176,178,178,179,179,182,182,185,185,186,186,187,187,188,188,191,191,192,192,195,195,196,196,197,197,200,200,208,208,209,209,211,211,214,214,219,219,220,220,221,221,225,225,227,227,229,229,230,230,231,231,233,233,234,234,235,235,239,239,241,241,242,242,244,244,245,245,247,247,248,248,249,249,252,252,254,254,256,256,262,262,263,263,267,267,268,268,269,269,273,273,274,274,275,275,277,277,279,279,280,280,281,281,283,283],"right_children":[2,4,6,8,10,12,14,16,18,20,22,24,26,28,30,32,-1,34,36,38,-1,40,42,44,46,48,50,52,54,56,58,60,62,64,-1,66,-1,68,-1,70,-1,-1,72,74,76,78,80,82,84,86,88,90,92,94,96,98,-1,100,-1,102,104,106,108,110,112,-1,-1,114,-1,116,118,-1,-1,120,-1,122,124,126,128,130,132,134,-1,136,138,-1,-1,-1,-1,140,142,144,146,148,150,152,154,-1,-1,156,-1,158,160,-1,-1,162,164,166,168,170,-1,-1,-1,172,-1,174,-1,-1,-1,176,-1,178,180,-1,182,184,186,188,190,192,-1,-1,194,196,198,200,202,204,206,208,-1,210,212,-1,-1,-1,-1,-1,-1,214,216,218,220,222,224,226,-1,-1,228,-1,230,-1,-1,232,-1,234,236,-1,-1,-1,238,240,-1,242,244,246,248,-1,250,252,-1,-1,254,-1,-1,256,258,260,262,-1,-1,264,266,-1,-1,268,270,272,-1,-1,274,-1,-1,-1,-1,-1,-1,-1,276,278,-1,280,-1,-1,282,-1,-1,-1,-1,284,286,288,-1,-1,-1,290,-1,292,-1,294,296,298,-1,300,302,304,-1,-1,-1,306,-1,308,310,-1,312,314,-1,316,318,320,-1,-1,322,-1,324,-1,326,-1,-1,-1,-1,-1,328,330,-1,-1,-1,332,334,336,-1,-1,-1,338,340,342,-1,344,-1,346,348,350,-1,352,-1,-1,-1,-1,-1,-1,-1,-1,-1,-1,-1,-1,-1,-1,-1,-1,-1,-1,-1,-1,-1,-1,-1,-1,-1,-1,-1,-1,-1,-1,-1,-1,-1,-1,-1,-1,-1,-1,-1,-1,-1,-1,-1,-1,-1,-1,-1,-1,-1,-1,-1,-1,-1,-1,-1,-1,-1,-1,-1,-1,-1,-1,-1,-1,-1,-1,-1,-1,-1],"split_conditions":[1.14515E4,2.5E0,2.9E0,5E-1,3.38E1,2.0165E3,2.0175E3,5E-1,5.5585E3,5E-1,5E-1,5.4557E4,5E-1,5.40365E4,3.23E1,5.0175E3,7.177355E3,5E-1,8.712E3,5E-1,3.9003792E3,5E-1,1.789E3,5E-1,2.0125E3,2.0175E3,2.86955E4,5E-1,2.0115E3,5E-1,5E-1,5E-1,1.8E0,2.0195E3,2.8699817E3,2.0175E3,1.4601194E3,5E-1,1.6734552E3,5E-1,7.246196E3,6.190519E3,2.0185E3,5E-1,5E-1,2.0085E3,5E-1,5E-1,5E-1,1.15005E4,1.3E2,3.445E1,2.0145E3,2.4150002E1,4.75E1,5E-1,1.2220796E3,5E-1,4.536402E3,5E-1,5E-1,2.0185E3,5E-1,5E-1,5.485E1,1.0947798E3,1.9161986E3,5E-1,3.9097175E3,5E-1,3.79E1,2.8947056E3,5.0081646E3,5E-1,3.3030852E3,2.0145E3,2.6738E4,6.32735E4,5E-1,5E-1,7.9837E4,5E-1,2.5355398E3,6.21E1,3.01205E4,7.857094E2,2.813507E3,1.5317963E3,2.376315E3,5E-1,2.0155E3,4.75E1,4.4199997E1,1.02E5,1.00315E5,2.2E2,5E-1,5.7820415E3,1.2737028E3,5E-1,2.192298E3,3.425E1,3.745E1,3.7622368E3,5.9554565E3,2.0135E3,5E-1,6.075E1,2.0195E3,3.7205E3,2.608136E3,2.9500137E3,1.9592825E3,5E-1,3.1244739E3,2.0195E3,5.380829E3,6.5600425E3,3.9065298E3,2.0145E3,4.337565E3,1.95E0,5E-1,1.2614125E3,2.0135E3,5.85E4,5E-1,9.37485E4,9.65615E4,5E-1,2.1359194E3,8.96214E2,1.0225E5,6.65E1,4.3505E4,1.75E0,5E-1,7.15E1,5E-1,2.0035E3,8.6228406E2,5E-1,5E-1,2.1612651E3,6.261287E2,4.249562E3,2.9667756E3,1.8928496E3,4.151625E2,2.0065E3,1.035E5,5E-1,5E-1,5.485E1,1.825E2,5E-1,2.0882317E3,4.101168E3,5E-1,3.6430159E3,5E-1,4.828008E2,1.7238226E3,2.0195E3,1.676257E3,5E-1,1.5279999E2,2.1149753E3,4.6093625E2,2.253787E3,3.9675E3,5E-1,2.649534E3,3.425E1,5E-1,5E-1,7.75E1,3.665029E2,5E-1,5E-1,1.1665034E3,8.27472E2,1.8E0,2.894893E2,6.962429E2,6.57735E4,7.9E4,5E-1,1.8E0,1.2272449E3,2.3785863E2,5E-1,1.2835E5,7.001987E2,2.6842194E2,1.75E0,5E-1,6.75E1,1.5548765E3,1.7912844E3,5E-1,1.8096776E3,4.1841196E3,1.7789844E3,1.1191947E3,5.346924E2,1.2588855E3,8.480741E2,5E-1,5.09E1,1.5037697E3,5E-1,3.406663E3,3.2586957E2,5E-1,1.126243E2,5.1041577E2,2.3574204E3,4.2991824E2,1.74E5,5E-1,9.902E4,1.02153674E3,1.1378834E3,1.5492218E2,5E-1,2.3492607E3,2.0195E3,4.4976294E3,2.017E3,4.9550003E1,3.895E1,6.206196E2,5E-1,4.185E1,6.65E1,3.3810037E3,7.485735E2,1.9165784E3,5E-1,3.8782583E3,2.0165E3,5E-1,4.8994946E3,5.185E1,7.5E1,9.208278E2,5E-1,1.8E0,2.01E3,8.4588635E2,1.7739263E3,6.575E1,1.02113464E3,2.5E1,9.388004E1,7.75E1,-1.5071412E0,2.2816547E2,6.632412E2,8.859382E2,7.543107E1,6.21E1,5E-1,1.5150933E3,1.6407732E3,4.6146417E2,5E-1,5E-1,9.07305E4,1.5747E3,3.0311245E3,2.0022983E3,4.415E1,5E-1,5E-1,8.8560046E2,5.2982E4,1.6532727E3,5E-1,5E-1,2.825E2,1.3087604E2,5E-1,3.9023953E2,1.02065796E3,2.2224171E2,1.6318098E3,8.343357E2,3.3989683E3,8.63906E2,2.9985312E3,3.3437751E3,7.2254126E2,2.7870044E3,2.5797349E3,2.0389509E3,1.2483542E3,2.345224E3,3.2399072E3,2.3515862E3,3.0890183E3,2.3579243E3,2.3237095E3,1.7140405E3,6.964852E3,1.1092462E3,1.0626724E3,4.33598E3,3.1056956E3,3.8214836E3,3.7308318E3,1.4763087E3,1.0940477E3,1.4796361E3,1.726839E3,1.4053351E3,1.1300167E3,1.925966E3,2.618672E2,1.2557217E3,1.3709434E3,1.0366355E3,8.4593286E2,1.2729818E3,1.0428732E2,4.0831396E2,5.3858057E2,3.4089438E2,1.1038585E3,2.0813152E3,1.4400747E3,8.75401E2,1.8972039E3,1.5314934E3,1.2343982E3,2.653037E2,2.7807485E3,2.0301945E3,2.6989592E3,1.7830614E3,3.2528157E3,9.25048E2,2.0230469E3,5.149222E2,2.143503E3,1.8177618E3,2.3573867E3,3.257362E3,6.9021643E2,1.0824185E3,1.7709735E3,7.1017474E2],"split_indices":[33,36,36,30,35,32,32,23,33,16,17,33,4,33,35,33,0,13,33,4,0,7,33,30,32,32,33,17,32,8,17,15,36,32,0,32,0,8,0,18,0,0,32,17,0,32,0,15,0,33,34,35,32,35,35,16,0,2,0,1,26,32,1,2,35,0,0,21,0,6,35,0,0,23,0,32,33,33,15,17,33,26,0,35,33,0,0,0,0,21,32,35,35,33,33,34,4,0,0,0,0,35,35,0,0,32,24,35,32,33,0,0,0,1,0,32,0,0,0,32,0,36,1,0,32,33,2,33,33,15,0,0,33,35,33,36,23,35,30,32,0,0,18,0,0,0,0,0,0,32,33,4,0,35,34,3,0,0,16,0,28,0,0,32,0,28,35,0,0,0,33,2,0,35,3,13,34,0,13,2,0,0,36,0,0,33,33,4,36,0,0,3,33,0,0,36,13,34,0,0,24,0,0,0,0,0,0,0,0,35,0,31,0,0,6,0,0,0,0,33,29,33,0,0,0,8,0,32,0,32,35,35,0,13,35,35,0,0,0,5,0,32,4,0,35,34,0,29,36,32,0,0,35,0,34,0,34,0,0,0,0,0,35,16,0,0,0,2,2,33,0,0,0,35,1,6,0,33,0,2,6,34,0,4,0,0,0,0,0,0,0,0,0,0,0,0,0,0,0,0,0,0,0,0,0,0,0,0,0,0,0,0,0,0,0,0,0,0,0,0,0,0,0,0,0,0,0,0,0,0,0,0,0,0,0,0,0,0,0,0,0,0,0,0,0,0,0,0,0,0,0,0,0],"split_type":[0,0,0,0,0,0,0,0,0,0,0,0,0,0,0,0,0,0,0,0,0,0,0,0,0,0,0,0,0,0,0,0,0,0,0,0,0,0,0,0,0,0,0,0,0,0,0,0,0,0,0,0,0,0,0,0,0,0,0,0,0,0,0,0,0,0,0,0,0,0,0,0,0,0,0,0,0,0,0,0,0,0,0,0,0,0,0,0,0,0,0,0,0,0,0,0,0,0,0,0,0,0,0,0,0,0,0,0,0,0,0,0,0,0,0,0,0,0,0,0,0,0,0,0,0,0,0,0,0,0,0,0,0,0,0,0,0,0,0,0,0,0,0,0,0,0,0,0,0,0,0,0,0,0,0,0,0,0,0,0,0,0,0,0,0,0,0,0,0,0,0,0,0,0,0,0,0,0,0,0,0,0,0,0,0,0,0,0,0,0,0,0,0,0,0,0,0,0,0,0,0,0,0,0,0,0,0,0,0,0,0,0,0,0,0,0,0,0,0,0,0,0,0,0,0,0,0,0,0,0,0,0,0,0,0,0,0,0,0,0,0,0,0,0,0,0,0,0,0,0,0,0,0,0,0,0,0,0,0,0,0,0,0,0,0,0,0,0,0,0,0,0,0,0,0,0,0,0,0,0,0,0,0,0,0,0,0,0,0,0,0,0,0,0,0,0,0,0,0,0,0,0,0,0,0,0,0,0,0,0,0,0,0,0,0,0,0,0,0,0,0,0,0,0,0,0,0,0,0,0,0,0,0,0,0,0,0,0,0,0,0,0,0,0,0,0,0,0,0,0,0,0,0],"sum_hessian":[8.624E3,3.503E3,5.121E3,2.675E3,8.28E2,3.911E3,1.21E3,2.185E3,4.9E2,2.06E2,6.22E2,2.426E3,1.485E3,1.065E3,1.45E2,2.178E3,7E0,3.43E2,1.47E2,1.89E2,1.7E1,4.74E2,1.48E2,1.588E3,8.38E2,1.33E3,1.55E2,8.22E2,2.43E2,1.4E1,1.31E2,1.223E3,9.55E2,3.07E2,3.6E1,8.9E1,5.8E1,1.86E2,3E0,4.62E2,1.2E1,3.1E1,1.17E2,8.97E2,6.91E2,1.64E2,6.74E2,8.64E2,4.66E2,9.9E1,5.6E1,7.35E2,8.7E1,5.2E1,1.91E2,1.3E1,1E0,1.13E2,1.8E1,1.137E3,8.6E1,1.38E2,8.17E2,2.58E2,4.9E1,5E0,8.4E1,1.73E2,1.3E1,4.33E2,2.9E1,5E0,1.12E2,8.79E2,1.8E1,3.72E2,3.19E2,4E1,1.24E2,5.38E2,1.36E2,8.28E2,3.6E1,3.66E2,1E2,1E0,9.8E1,1.7E1,3.9E1,5.6E1,6.79E2,1.9E1,6.8E1,9E0,4.3E1,6.3E1,1.28E2,1.2E1,1E0,8.8E1,2.5E1,9.27E2,2.1E2,8.1E1,5E0,4.4E1,9.4E1,7.21E2,9.6E1,2.15E2,4.3E1,3.3E1,1.6E1,1.66E2,7E0,3.94E2,3.9E1,2.2E1,7E0,8.77E2,2E0,8.8E1,2.84E2,8.6E1,2.33E2,9E0,3.1E1,1.13E2,1.1E1,5.28E2,1E1,1.04E2,3.2E1,7.89E2,3.9E1,2.67E2,9.9E1,9.1E1,9E0,5.4E1,2E0,1.74E2,5.05E2,1.8E1,1E0,1.6E1,5.2E1,8E0,1E0,3.2E1,1.1E1,3.3E1,3E1,1.02E2,2.6E1,7.6E1,1.2E1,2.7E1,9E2,8E0,2.02E2,1E0,4.3E1,7.9E1,1.5E1,5.66E2,1.55E2,9.5E1,1E0,1.6E2,5.5E1,1.61E2,5E0,3.16E2,7.8E1,1.64E2,7.13E2,4E0,8.4E1,2.01E2,8.3E1,2.5E1,2.08E2,3E0,6E0,1.7E1,1.4E1,8.5E1,2.8E1,1E1,1E0,4.84E2,4.4E1,3E1,2E0,5.9E2,1.99E2,2.9E1,1E1,3.7E1,2.3E2,9.8E1,1E0,8.4E1,7E0,4E0,5E0,1E0,5.3E1,1.41E2,3.3E1,4.89E2,1.6E1,5E0,2.7E1,1E0,1E1,3.2E1,1E0,2.4E1,6E0,8.8E1,1.4E1,2.5E1,1E0,6.2E1,1.4E1,8.88E2,1.2E1,1.03E2,9.9E1,7.8E1,1E0,3.25E2,2.41E2,1.43E2,1.2E1,2E0,5.3E1,1.53E2,8E0,3.9E1,2.77E2,6E1,1.8E1,1.43E2,2.1E1,3.52E2,3.61E2,6.6E1,1.8E1,1.12E2,8.9E1,1.43E2,6.5E1,1E0,1.6E1,1E0,1.3E1,7.4E1,1.1E1,1E0,2.7E1,4.35E2,4.9E1,4.3E1,1E0,1E2,4.9E2,1.81E2,1.8E1,1.5E1,1.4E1,1.1E2,1.2E2,5.2E1,1E0,8.1E1,6E1,2.22E2,2.67E2,2.6E1,1E0,2.3E1,1E0,5E0,1E0,8.4E1,4E0,6.1E1,1E0,6.18E2,2.7E2,1E0,1.02E2,5.3E1,4.6E1,4E0,7.4E1,2.79E2,4.6E1,9.6E1,1.45E2,1.19E2,2.4E1,1.52E2,1E0,1E0,3.8E1,2.28E2,4.9E1,1.6E1,2E0,5.1E1,9.2E1,1.37E2,2.15E2,2.8E1,3.33E2,1E0,6.5E1,6.3E1,2.6E1,1.3E1,5.2E1,1E0,1.5E1,1.6E1,1.1E1,4.3E2,5E0,8.6E1,1.4E1,3.5E2,1.4E2,1.8E2,1E0,2.7E1,8.3E1,1.04E2,1.6E1,5.1E1,1E0,8E1,1E0,1.54E2,6.8E1,2.52E2,1.5E1,1E1,1.6E1,2.1E1,2E0],"tree_param":{"num_deleted":"0","num_feature":"37","num_nodes":"353","size_leaf_vector":"0"}},{"base_weights":[5.557034E3,7.485016E3,3.927965E3,6.408654E3,1.101185E4,3.5204424E3,5.222109E3,6.260145E3,1.0149829E4,1.4478038E4,9.930866E3,2.715618E3,3.9590842E3,5.6833706E3,3.6061836E3,4.902151E3,6.6151714E3,9.360526E3,1.8318295E4,1.3621632E4,2.0245422E4,1.0812304E4,8.0232847E3,2.469603E3,3.8536714E3,4.2587285E3,2.9968386E3,5.3902627E3,7.9313564E3,3.9566362E3,2.4246316E3,5.4098364E3,3.839423E3,6.911331E3,5.393862E3,8.939445E3,1.488864E4,1.1886133E4,1.7332398E4,6.0772993E3,2.1172879E4,1.1302404E4,7.622541E3,9.699701E3,7.044965E3,2.440876E3,1.1566841E4,3.5490862E3,7.8203433E3,4.198479E3,8.255211E3,3.2581956E3,2.35076E3,5.246941E3,8.642235E3,1.3812307E4,7.3976826E3,4.2530186E3,3.099086E3,1.4090719E3,2.9755063E3,6.1646377E3,4.910142E3,4.3491865E3,3.307011E3,5.403709E3,7.1173013E3,6.384848E3,5.039896E3,5.3896763E3,9.228122E3,2.4009658E4,1.1328412E4,2.1568795E4,1.4780892E4,2.193128E4,8.553637E3,1.1148049E4,2.1699107E4,8.504956E3,3.9965056E3,1.0136821E4,4.4438784E3,6.7564263E3,1.1213771E4,2.625091E3,1.6121486E3,3.2795266E3,4.9291787E3,1.5607775E3,1.4751164E4,3.8447844E3,4.823357E3,8.892254E3,2.6876704E3,3.6267312E3,2.8881028E3,1.178896E3,2.462318E3,7.138066E3,5.0698403E3,2.5293516E3,9.206854E3,5.0762705E3,7.9323477E3,4.496935E3,2.6566858E3,1.3583541E3,3.213465E3,2.0358158E3,1.1218756E3,3.3141177E3,1.6959829E3,6.8578623E3,5.254019E3,4.6720015E3,6.449462E3,2.0243524E3,4.4513125E3,2.4063533E3,3.553286E3,1.128288E4,5.1930396E3,7.2993853E3,5.749729E3,4.6410317E3,6.3873364E3,9.681235E3,7.346343E3,2.733459E4,5.354966E3,1.0727334E4,1.746861E4,1.0928726E4,1.7511543E4,1.0433721E4,7.019834E3,4.701134E3,2.1560417E3,1.0396847E4,2.9871562E3,6.507358E3,1.05591E4,2.58119E3,6.4210835E3,9.467255E2,1.8288868E3,3.1998652E3,5.924908E3,6.348698E3,3.4724023E3,2.2307373E3,8.54008E2,1.0897334E3,2.4724805E4,4.376047E3,3.4875046E3,5.1135996E3,4.0895422E3,3.3464312E3,3.9233374E3,2.7639763E3,3.42874E3,2.1129495E3,8.0081055E2,2.5402908E3,2.0017427E3,7.371688E3,3.0471646E3,5.321086E3,4.0238857E3,5.193875E3,1.4208906E3,8.0855195E3,3.2687554E3,6.1543677E3,4.273209E3,2.8368523E3,1.512782E3,4.0612305E2,1.4948811E3,2.4996494E3,3.5473047E3,3.087173E2,1.2042256E3,3.7309954E3,2.412625E3,2.0137277E3,7.1593384E2,2.686159E3,7.026545E3,4.408596E3,7.013472E3,5.0681606E3,3.9785212E3,4.2346807E3,6.2507676E3,1.0894807E3,2.536405E3,3.6196616E3,1.420416E3,4.4717554E3,5.8675396E3,6.7856504E3,7.671916E3,6.405052E3,4.4219883E3,3.419938E3,4.880806E3,5.761427E3,7.7224653E3,5.8238564E3,9.947703E3,1.3394209E4,9.7411E3,1.1304199E4,8.662917E3,4.4389814E3,7.4289497E3,8.670781E2,2.583754E3,6.881489E3,5.297738E3,2.4744656E3,3.877056E3,6.346436E2,1.1581211E3,1.467427E3,2.1553906E3,3.2954033E3,2.247034E3,-2.157463E3,3.9304805E3,2.3641553E2,9.3024335E2,1.7282227E2,1.3377631E3,4.748928E4,1.3068848E3,4.3266904E3,1.3071105E4,3.6602302E3,2.5372026E3,5.4162607E3,3.938711E3,3.7162092E3,4.7985327E3,4.0742302E3,2.775954E3,5.280968E3,3.6134705E3,2.7813748E3,8.857424E2,9.256956E2,2.8839526E2,7.514326E3,2.2994243E3,6.4146094E2,4.4371465E3,5.8259863E3,4.552223E3,4.3643887E3,3.5198423E3,8.137797E3,2.2391846E3,7.922086E3,2.0951443E3,4.4221543E3,2.5442307E3,1.3805455E3,2.7060405E3,3.9542512E3,1.2966328E3,4.6030762E2,2.195913E3,7.1481387E3,3.7000532E3,4.546951E3,2.1986694E3,7.6016836E3,2.4660996E3,4.8329746E3,6.0778613E3,4.8707905E3,3.5896208E3,3.3061646E3,4.689642E3,2.6908838E2,1.2732487E3,2.9504934E3,1.7444495E3,3.9745344E3,2.9548682E3,4.6078037E3,1.7922108E3,5.671719E3,9.687808E3,7.6361484E3,5.993499E3,8.900532E3,7.085494E3,8.646024E3,6.0570547E3,3.9998606E3,5.900233E3,3.5463743E3,1.1741538E3,5.0130225E3,3.4629949E3,3.895573E3,8.14386E3,1.0227715E4,6.7904473E3,1.1496736E4,6.0133994E3,9.103904E3,1.9030726E3,1.2591738E3,4.144336E1,5.5443433E3,7.7694844E3,4.406074E3,6.252329E3,2.4005295E3,3.8883088E3,7.563032E2,3.7487943E2,4.4436557E2,1.2939651E3,1.5280901E3,7.986936E2,2.2472295E3,1.2526215E3,3.610863E3,2.8453184E3,4.1712383E3,3.917627E1,1.7533223E3,2.5332227E2,5.3868164E1,1.906459E3,4.5336553E3,3.419643E3,4.009651E3,3.109501E3,2.952062E3,2.1140771E3,4.7584326E3,5.820829E3,4.0914807E3,2.4140408E3,3.916581E3,2.7264836E3,4.916665E3,1.9450493E3,2.9014343E3,1.714634E3,3.5358796E3,2.6649326E3,-2.352666E2,5.413714E2,2.8379082E3,6.112283E2,4.390489E3,6.2374277E3,5.1470547E3,3.7810059E3,8.55023E3,1.7625371E3,4.2636694E2,4.4585767E3,2.877223E3,6.9717706E2,1.6315737E3,1.8821631E2,4.1891094E3,1.5401621E3,4.592106E3,1.2123413E3,2.9391848E3,7.97732E3,4.882582E3,1.3369027E3,8.1813286E3,4.5508213E3,3.7601533E3,1.6881957E3,3.5361555E3,2.174172E3,5.654643E3,4.1240103E3,4.4122715E3,3.048484E3,5.537168E2,4.641461E3,2.7405078E2,1.9995624E3,5.3779346E3,7.573836E3,8.371117E3,7.0322793E3,5.4011333E3,7.574642E3,9.387304E3,6.047752E3,6.635928E3,8.756791E3,6.2982397E3,4.1710815E3,4.1111616E3,6.631556E2,2.9638477E2,3.6150627E3,1.4548672E3,1.6600684E2,5.2858247E3,4.2406763E3,2.7012383E3,5.044139E3,1.033137E4,1.1749414E3,6.3706055E2,7.158202E3,1.1657499E4,5.8333022E3,9.743441E3,6.189823E3,5.713672E2,2.6004207E3,8.126704E3,5.277882E3,2.8674133E3,2.2129512E3,3.9562039E3,7.220415E2,3.8141705E2,8.6811597E2,-6.3832214E1,6.0487396E2,8.2160004E2,5.0348328E1,7.8539545E2,1.6247576E3,1.5686228E3,7.360807E2,9.7172345E2,-2.0625781E2,7.801332E2,2.3056353E3,3.8485552E3,2.9313157E3,2.9877732E3,1.5636451E3,4.432925E3,1.5596237E3,4.999255E3,3.7344197E3,2.9797168E2,3.452863E3,4.5891787E3,3.6944524E3,2.8416724E3,4.466932E3,3.314044E3,2.4067473E3,1.5655787E3,2.8329844E3,5.008067E3,3.5988682E3,6.2165254E3,5.0361514E3,2.5699895E3,4.2727637E2,4.023975E3,2.5476382E3,3.4258865E3,1.5884722E3,2.247553E3,5.0253403E3,1.8209878E3,4.3190186E2,3.6697058E3,5.635054E2,2.0413123E3,2.827548E3,4.6516665E3,3.1203433E3,6.504918E3,4.338889E3,6.1653706E3,4.6665215E3,4.167245E3,3.1721018E3,4.5829844E3,2.4861199E3,1.1838223E3,4.329222E3],"categories":[],"categories_nodes":[],"categories_segments":[],"categories_sizes":[],"default_left":[true,true,true,true,true,true,true,true,true,true,true,true,true,true,true,true,true,true,false,true,true,true,true,true,true,true,true,true,true,true,true,true,true,true,true,true,false,true,true,false,true,true,true,true,true,true,false,true,true,true,true,true,true,true,true,false,true,true,true,true,true,true,true,true,true,true,true,false,true,false,true,true,true,false,false,false,false,true,false,true,true,true,false,true,false,true,true,true,true,true,true,true,true,false,false,true,true,true,true,true,true,false,false,true,true,true,true,true,true,false,true,true,true,true,true,true,false,false,true,true,true,false,true,true,true,true,true,true,false,false,false,true,false,true,false,false,true,false,true,false,false,true,false,true,false,true,true,true,false,false,true,false,true,true,true,true,true,true,true,true,true,true,false,false,true,false,false,true,true,true,true,false,false,true,false,true,true,false,false,false,false,true,false,false,false,true,false,true,false,false,true,true,true,true,true,true,false,true,true,true,false,true,true,true,true,true,true,true,true,false,true,false,false,false,true,true,true,false,false,true,false,true,true,true,false,true,true,true,true,true,false,false,true,false,false,false,true,false,true,true,false,true,true,true,true,true,true,false,true,false,false,true,false,false,true,false,true,false,false,true,true,false,false,false,false,true,false,true,true,true,false,true,false,false,false,false,false,true,false,true,false,true,true,false,true,true,true,false,false,false,false,true,false,true,true,true,false,true,true,true,true,false,true,true,false,true,true,true,true,false,false,true,true,true,false,true,true,false,false,false,true,false,false,true,true,true,true,true,true,true,true,true,false,true,true,true,false,false,false,false,false,true,true,true,true,true,true,true,true,false,true,true,true,true,false,false,true,true,true,false,false,false,false,true,true,true,true,false,false,false,true,false,false,false,false,true,false,false,false,false,false,false,false,false,false,false,false,false,false,false,false,false,false,false,false,false,false,false,false,false,false,false,false,false,false,false,false,false,false,false,false,false,false,false,false,false,false,false,false,false,false,false,false,false,false,false,false,false,false,false,false,false,false,false,false,false,false,false,false,false,false,false,false,false,false,false,false,false,false,false,false,false,false,false,false,false,false,false,false,false,false,false,false,false,false,false,false,false,false,false,false,false,false,false,false,false,false,false,false,false,false,false,false,false,false,false,false,false,false,false,false,false,false,false,false,false,false],"id":4,"left_children":[1,3,5,7,9,11,13,15,17,19,21,23,25,27,29,31,33,35,-1,37,39,41,43,45,47,49,51,53,55,57,59,61,63,65,67,69,-1,71,73,-1,75,77,79,81,83,85,-1,87,89,91,93,95,97,99,101,-1,103,105,107,109,111,113,115,117,119,121,123,-1,125,-1,127,129,131,-1,-1,-1,-1,133,-1,135,137,139,-1,141,-1,143,145,147,149,151,153,155,157,-1,-1,159,161,163,165,167,169,-1,-1,171,173,175,177,179,181,-1,183,185,187,189,191,193,-1,-1,195,197,199,-1,201,203,205,207,209,211,-1,-1,-1,213,-1,215,-1,-1,217,-1,219,-1,-1,221,-1,223,-1,225,227,229,-1,-1,231,-1,233,235,237,239,241,243,245,247,249,251,-1,-1,253,-1,-1,255,257,259,261,-1,-1,263,-1,265,267,-1,-1,-1,-1,269,-1,-1,-1,271,-1,273,-1,-1,275,277,279,281,283,285,-1,287,289,291,-1,293,295,297,299,301,303,305,307,-1,309,-1,-1,-1,311,313,315,-1,-1,317,-1,319,321,323,-1,325,327,329,331,333,-1,-1,335,-1,-1,-1,337,-1,339,341,-1,343,345,347,349,351,353,-1,355,-1,-1,357,-1,-1,359,-1,361,-1,-1,363,365,-1,-1,-1,-1,367,-1,369,371,373,-1,375,-1,-1,-1,-1,-1,377,-1,379,-1,381,383,-1,385,387,389,-1,-1,-1,-1,391,-1,393,395,397,-1,399,401,403,405,-1,407,409,-1,411,413,415,417,-1,-1,419,421,423,-1,425,427,-1,-1,-1,429,-1,-1,431,433,435,437,439,441,443,445,447,-1,449,451,453,-1,-1,-1,-1,-1,455,457,459,461,463,465,467,469,-1,471,473,475,477,-1,-1,479,481,483,-1,-1,-1,-1,485,487,489,491,-1,-1,-1,493,-1,-1,-1,-1,495,-1,-1,-1,-1,-1,-1,-1,-1,-1,-1,-1,-1,-1,-1,-1,-1,-1,-1,-1,-1,-1,-1,-1,-1,-1,-1,-1,-1,-1,-1,-1,-1,-1,-1,-1,-1,-1,-1,-1,-1,-1,-1,-1,-1,-1,-1,-1,-1,-1,-1,-1,-1,-1,-1,-1,-1,-1,-1,-1,-1,-1,-1,-1,-1,-1,-1,-1,-1,-1,-1,-1,-1,-1,-1,-1,-1,-1,-1,-1,-1,-1,-1,-1,-1,-1,-1,-1,-1,-1,-1,-1,-1,-1,-1,-1,-1,-1,-1,-1,-1,-1,-1,-1,-1,-1,-1,-1,-1,-1,-1,-1,-1,-1,-1,-1,-1,-1,-1,-1,-1,-1],"loss_changes":[2.7060142E10,1.4920434E10,2.4482365E9,1.6188047E9,3.310846E9,1.2460319E9,8.128225E8,1.3729628E9,5.635328E8,7.960371E8,1.100333E9,3.429755E8,6.509773E8,5.2917453E8,9.434035E7,3.072645E8,7.9753216E8,1.1364864E8,0E0,1.0304717E9,2.129746E8,6.6423194E8,3.039621E8,2.4303514E8,2.404631E8,3.8743654E8,8.521216E7,3.140014E8,2.0539494E8,3.5618816E7,2.9374048E7,1.2399309E8,3.9897856E7,5.3725594E8,1.2742246E8,5.376205E7,0E0,6.3405466E8,3.189371E8,0E0,4.209869E7,4.2248192E8,1.8038758E8,1.4104474E8,1.01056E8,1.5392768E8,0E0,6.121421E7,6.277357E8,3.6359373E8,6.4769664E7,4.258227E7,1.8275648E7,2.1198643E8,8.370739E7,0E0,7.392154E7,4.256512E7,6.187424E6,1.856032E6,1.0843232E7,6.433997E7,6.187827E7,1.449408E7,1.4074112E7,2.2256077E8,3.634217E8,0E0,1.53088E8,0E0,7.323136E6,1.637522E8,2.924032E8,0E0,0E0,0E0,0E0,3.80842E8,0E0,7.857306E7,9.3168E6,1.0651597E8,0E0,6.388531E7,0E0,1.2441037E8,2.5815072E7,1.834112E7,4.4128256E7,2.356498E6,9.26836E8,1.9523686E8,1.1135078E8,0E0,0E0,2.750464E6,3.877376E6,3.95836E6,1.94048E5,3.5836416E7,1.5754854E8,0E0,0E0,1.217856E6,2.5716736E7,1.8198272E7,3.6416E4,4.2921E4,2.809728E6,0E0,8.3358E5,1.897056E6,1.67236E6,4.234701E7,7.766656E7,4.055091E7,0E0,0E0,1.0173056E7,1.51816E6,5.90112E6,0E0,8.127949E7,2.2219162E8,1.422162E8,6.118912E7,1.8182912E7,1.5044608E7,0E0,0E0,0E0,1.8777498E8,0E0,2.4152064E8,0E0,0E0,1.866624E6,0E0,1.067516E6,0E0,0E0,2.4186368E7,0E0,1.0630195E8,0E0,2.497672E6,1.3713696E7,8.434688E6,0E0,0E0,5.4900384E7,0E0,6.25705E4,6.78489E5,2.0703237E9,1.3313229E8,1.0035968E8,1.3548442E8,3.0076416E7,3.2285312E7,1.7517056E7,2.993792E6,0E0,0E0,5.64943E5,0E0,0E0,2.3960832E7,1.3873168E7,1.8543616E8,7.97952E6,0E0,0E0,3.172352E6,0E0,6.950886E7,1.6819072E7,0E0,0E0,0E0,0E0,6.5268E5,0E0,0E0,0E0,4.655536E6,0E0,9.70278E5,0E0,0E0,7.1232E6,5.902016E6,4.0099456E7,3.15904E6,1.2011008E7,2.1247488E7,0E0,2.604305E5,2.06768E6,5.949568E6,0E0,3.2206848E7,2.8091136E7,3.6587725E8,5.2989952E8,4.8231424E7,1.8832512E7,9.181632E6,2.3881216E7,0E0,2.14016E6,0E0,0E0,0E0,6.264525E7,2.7619738E8,1.6451584E8,0E0,0E0,9.18999E5,0E0,7.447398E7,3.09408E6,7.18889E7,0E0,4.11739E5,2.139868E6,1.659824E6,3.23744E6,1.1875328E7,0E0,0E0,1.5763248E7,0E0,0E0,0E0,9.07793E5,0E0,2.1511315E6,6.728397E7,0E0,9.587354E7,1.2366144E7,6.4917504E7,1.2017792E7,1.3714048E7,1.032512E7,0E0,3.28192E6,0E0,0E0,5.07328E6,0E0,0E0,6.572625E5,0E0,9.92589E5,0E0,0E0,1.6515789E8,8.192154E7,0E0,0E0,0E0,0E0,1.5882624E7,0E0,1.2507136E7,4.759664E6,1.189453E6,0E0,2.6196E6,0E0,0E0,0E0,0E0,0E0,1.660288E6,0E0,9.829888E6,0E0,1.3590528E7,3.3433984E7,0E0,1.4080128E7,6.42912E5,7.246976E6,0E0,0E0,0E0,0E0,5.19616E6,0E0,1.1757056E7,1.65557E6,1.9620352E7,0E0,7.028531E7,2.5974067E8,3.070546E8,3.6415283E8,0E0,2.6039552E7,1.8070848E7,0E0,8.750976E6,8.904835E5,1.9513344E7,1.2872432E7,0E0,0E0,6.011597E7,3.1646848E7,2.2881075E8,0E0,4.591872E7,3.157516E6,0E0,0E0,0E0,7.841024E6,0E0,0E0,5.854925E7,5.097536E6,2.55725E5,9.46722E5,8.504551E5,2.59324E6,8.99904E5,1.5915185E6,3.770944E6,0E0,2.932736E6,7.926208E6,4.021088E6,0E0,0E0,0E0,0E0,0E0,1.1380685E8,7.889536E6,4.533504E7,6.838016E7,2.091008E6,1.764664E7,2.1923072E7,3.420723E7,0E0,2.310072E6,4.44992E6,1.3660352E7,4.948992E6,0E0,0E0,4.41322E5,5.489936E6,9.135424E6,0E0,0E0,0E0,0E0,1.0697088E7,9.924403E7,3.0928128E7,1.0299392E7,0E0,0E0,0E0,1.2654208E7,0E0,0E0,0E0,0E0,7.70064E5,0E0,0E0,0E0,0E0,0E0,0E0,0E0,0E0,0E0,0E0,0E0,0E0,0E0,0E0,0E0,0E0,0E0,0E0,0E0,0E0,0E0,0E0,0E0,0E0,0E0,0E0,0E0,0E0,0E0,0E0,0E0,0E0,0E0,0E0,0E0,0E0,0E0,0E0,0E0,0E0,0E0,0E0,0E0,0E0,0E0,0E0,0E0,0E0,0E0,0E0,0E0,0E0,0E0,0E0,0E0,0E0,0E0,0E0,0E0,0E0,0E0,0E0,0E0,0E0,0E0,0E0,0E0,0E0,0E0,0E0,0E0,0E0,0E0,0E0,0E0,0E0,0E0,0E0,0E0,0E0,0E0,0E0,0E0,0E0,0E0,0E0,0E0,0E0,0E0,0E0,0E0,0E0,0E0,0E0,0E0,0E0,0E0,0E0,0E0,0E0,0E0,0E0,0E0,0E0,0E0,0E0,0E0,0E0,0E0,0E0,0E0,0E0,0E0,0E0,0E0,0E0,0E0,0E0,0E0,0E0,0E0],"parents":[2147483647,0,0,1,1,2,2,3,3,4,4,5,5,6,6,7,7,8,8,9,9,10,10,11,11,12,12,13,13,14,14,15,15,16,16,17,17,19,19,20,20,21,21,22,22,23,23,24,24,25,25,26,26,27,27,28,28,29,29,30,30,31,31,32,32,33,33,34,34,35,35,37,37,38,38,40,40,41,41,42,42,43,43,44,44,45,45,47,47,48,48,49,49,50,50,51,51,52,52,53,53,54,54,56,56,57,57,58,58,59,59,60,60,61,61,62,62,63,63,64,64,65,65,66,66,68,68,70,70,71,71,72,72,77,77,79,79,80,80,81,81,83,83,85,85,86,86,87,87,88,88,89,89,90,90,91,91,92,92,95,95,96,96,97,97,98,98,99,99,100,100,103,103,104,104,105,105,106,106,107,107,108,108,110,110,111,111,112,112,113,113,114,114,115,115,118,118,119,119,120,120,122,122,123,123,124,124,125,125,126,126,127,127,131,131,133,133,136,136,138,138,141,141,143,143,145,145,146,146,147,147,150,150,152,152,153,153,154,154,155,155,156,156,157,157,158,158,159,159,160,160,161,161,164,164,167,167,168,168,169,169,170,170,173,173,175,175,176,176,181,181,185,185,187,187,190,190,191,191,192,192,193,193,194,194,195,195,197,197,198,198,199,199,201,201,202,202,203,203,204,204,205,205,206,206,207,207,208,208,210,210,214,214,215,215,216,216,219,219,221,221,222,222,223,223,225,225,226,226,227,227,228,228,229,229,232,232,236,236,238,238,239,239,241,241,242,242,243,243,244,244,245,245,246,246,248,248,251,251,254,254,256,256,259,259,260,260,265,265,267,267,268,268,269,269,271,271,277,277,279,279,281,281,282,282,284,284,285,285,286,286,291,291,293,293,294,294,295,295,297,297,298,298,299,299,300,300,302,302,303,303,305,305,306,306,307,307,308,308,311,311,312,312,313,313,315,315,316,316,320,320,323,323,324,324,325,325,326,326,327,327,328,328,329,329,330,330,331,331,333,333,334,334,335,335,341,341,342,342,343,343,344,344,345,345,346,346,347,347,348,348,350,350,351,351,352,352,353,353,356,356,357,357,358,358,363,363,364,364,365,365,366,366,370,370,375,375],"right_children":[2,4,6,8,10,12,14,16,18,20,22,24,26,28,30,32,34,36,-1,38,40,42,44,46,48,50,52,54,56,58,60,62,64,66,68,70,-1,72,74,-1,76,78,80,82,84,86,-1,88,90,92,94,96,98,100,102,-1,104,106,108,110,112,114,116,118,120,122,124,-1,126,-1,128,130,132,-1,-1,-1,-1,134,-1,136,138,140,-1,142,-1,144,146,148,150,152,154,156,158,-1,-1,160,162,164,166,168,170,-1,-1,172,174,176,178,180,182,-1,184,186,188,190,192,194,-1,-1,196,198,200,-1,202,204,206,208,210,212,-1,-1,-1,214,-1,216,-1,-1,218,-1,220,-1,-1,222,-1,224,-1,226,228,230,-1,-1,232,-1,234,236,238,240,242,244,246,248,250,252,-1,-1,254,-1,-1,256,258,260,262,-1,-1,264,-1,266,268,-1,-1,-1,-1,270,-1,-1,-1,272,-1,274,-1,-1,276,278,280,282,284,286,-1,288,290,292,-1,294,296,298,300,302,304,306,308,-1,310,-1,-1,-1,312,314,316,-1,-1,318,-1,320,322,324,-1,326,328,330,332,334,-1,-1,336,-1,-1,-1,338,-1,340,342,-1,344,346,348,350,352,354,-1,356,-1,-1,358,-1,-1,360,-1,362,-1,-1,364,366,-1,-1,-1,-1,368,-1,370,372,374,-1,376,-1,-1,-1,-1,-1,378,-1,380,-1,382,384,-1,386,388,390,-1,-1,-1,-1,392,-1,394,396,398,-1,400,402,404,406,-1,408,410,-1,412,414,416,418,-1,-1,420,422,424,-1,426,428,-1,-1,-1,430,-1,-1,432,434,436,438,440,442,444,446,448,-1,450,452,454,-1,-1,-1,-1,-1,456,458,460,462,464,466,468,470,-1,472,474,476,478,-1,-1,480,482,484,-1,-1,-1,-1,486,488,490,492,-1,-1,-1,494,-1,-1,-1,-1,496,-1,-1,-1,-1,-1,-1,-1,-1,-1,-1,-1,-1,-1,-1,-1,-1,-1,-1,-1,-1,-1,-1,-1,-1,-1,-1,-1,-1,-1,-1,-1,-1,-1,-1,-1,-1,-1,-1,-1,-1,-1,-1,-1,-1,-1,-1,-1,-1,-1,-1,-1,-1,-1,-1,-1,-1,-1,-1,-1,-1,-1,-1,-1,-1,-1,-1,-1,-1,-1,-1,-1,-1,-1,-1,-1,-1,-1,-1,-1,-1,-1,-1,-1,-1,-1,-1,-1,-1,-1,-1,-1,-1,-1,-1,-1,-1,-1,-1,-1,-1,-1,-1,-1,-1,-1,-1,-1,-1,-1,-1,-1,-1,-1,-1,-1,-1,-1,-1,-1,-1,-1],"split_conditions":[1.5166E4,2.5E0,2.9E0,5E-1,3.38E1,2.0155E3,5.3289E4,1.8E0,5E-1,3.7E0,7.9105E3,5E-1,5E-1,5E-1,8.17275E4,7.555E3,6.075E1,5E-1,5.495489E3,5E-1,2.0175E3,5E-1,3.795E1,5E-1,6.8100006E1,5E-1,7.15E1,5E-1,5E-1,5E-1,2.0105E3,4.38E1,5.28E1,2.0185E3,2.4955E3,2.0175E3,4.4665923E3,2.0175E3,3.34E1,1.8231898E3,5E-1,5E-1,5.185E1,5E-1,5E-1,8.06195E4,3.4700525E3,5E-1,5E-1,5E-1,6.63365E4,2.69565E4,5E-1,3.425E1,2.0145E3,4.1436924E3,2.0145E3,5E-1,5E-1,5E-1,5E-1,5E-1,5E-1,2.0145E3,5.38E1,3.8E2,5E-1,1.9154545E3,5E-1,1.616903E3,5E-1,5.1425E3,5E-1,6.4706387E3,4.4342676E3,6.5793843E3,2.566091E3,5E-1,6.5097324E3,1.045E3,5.435E1,5E-1,1.3331636E3,5E-1,3.3641316E3,5E-1,2.0105E3,5E-1,1.475E2,3.5796E4,3.20785E4,3.0162E4,5E-1,2.6676763E3,8.0630115E2,5.95E1,5E-1,2.3643E4,5.30885E4,5E-1,5E-1,7.588055E2,2.7620562E3,5.2793E4,4.75E1,1.55E2,2.0155E3,2.5E2,1.475E2,6.1074475E2,8.54E4,5E-1,1.625E2,2.0185E3,2.0195E3,4.107E3,1.9348386E3,6.073057E2,5E-1,2.0165E3,5E-1,3.384864E3,5E-1,5E-1,5E1,2.0175E3,5E-1,9.5E0,2.2039028E3,8.200377E3,1.6064899E3,2.665E1,5.240583E3,5E-1,5.253463E3,3.1301165E3,2.941E3,1.4103402E3,4.5385E3,3.1190542E3,8.961469E2,5.185E1,3.16773E3,5E-1,1.9263251E3,5E-1,7.5E1,6.35E1,1.7774725E3,1.9046095E3,2.82E4,6.692212E2,4.1845E4,2.86515E4,4.2569E4,5E-1,5E-1,5E-1,2.0175E3,5.28E1,6.21E1,1.00095E5,1.0286221E3,6.338849E2,4.9836E4,7.620873E2,6.005228E2,5E-1,2.34105E4,5E-1,2.2E2,1.5581626E3,4.262672E2,5.2968E4,9.8062665E2,5E-1,5E-1,8.510557E2,4.5383463E2,1.2183692E2,4.4846436E2,5.57135E4,1.0641914E3,9.261519E1,3.612677E2,3.025E2,7.2378754E2,8.7182E4,2.1478017E2,8.058477E2,4.315E1,1.475E2,5E-1,5E-1,5.09E1,4.12E1,1.8752303E3,1.07685E4,2.0185E3,7.15E1,4.2612482E2,4.9550003E1,5E-1,4.185E1,5.09E1,4.6699997E1,5.6550003E1,6.975E1,6.8100006E1,1.7284281E3,2.0175E3,1.747157E3,2.984311E3,4.018263E3,7.5515E3,5E-1,5.235E1,1.3316945E3,2.228685E3,5E-1,7.751262E2,5E-1,5E-1,5E-1,1.1631168E3,4.3449997E1,7.75E1,1.1905E5,5E-1,4.73315E4,6.741102E2,-6.472389E2,5.485E1,7.092466E1,2.7907303E2,5.1846684E1,3.02735E4,1.4246785E4,5.336E4,5E-1,3.9213318E3,5E-1,6.495E1,2.0165E3,6.65E1,5E-1,6.495E1,1.2222692E3,5.6E1,1.5842904E3,1.0840411E3,5.28E1,2.6572272E2,2.777087E2,5E-1,2.2542979E3,5E-1,1.924383E2,1.331144E3,2.0155E3,5.28E1,1.3093167E3,1.0559528E3,2.441339E3,6.717554E2,5E-1,6.2854333E2,2.0035E3,2.125E2,5.48465E4,8.118122E2,1.25065E5,3.8898987E2,1.3809229E2,6.587739E2,2.1444417E3,1.110016E3,7.008E3,6.596008E2,3.9800003E1,7.398299E2,5.485E1,6.475E1,1.4612372E3,5E-1,5E-1,4.56E1,8.072652E1,3.819746E2,8.851481E2,5.2333484E2,5E-1,8.864605E2,9.045E2,5.1465E3,5E-1,2.9063423E3,3.745E1,5E-1,5E-1,5E-1,2.5938074E3,8.7805E3,5.33E1,1.77007E3,5E-1,2.0165E3,5E-1,5E-1,1.168672E3,2.443158E3,5E-1,7.709E3,5E-1,1.8040199E3,5.0925E3,4.785E3,3.7775217E2,1.2433008E1,1.6633031E3,1.55E2,1.3218223E3,1.8756989E3,3.80505E4,5.485E1,2.003E3,1.02052E5,9.49E4,2.0075E3,5E-1,5E-1,1.8E0,3.7578644E2,5E-1,1.625E2,7.3032E4,1.1752881E1,5.259967E2,7.599668E1,1.616045E1,5.7193774E2,5E-1,4.25E1,5.95E1,5E-1,4.8696E4,7.3350006E1,5E-1,5E-1,1.2274442E3,7.065E1,5.9639E4,5.0050003E1,1.75E0,5.8351483E2,8.7043036E2,2.49805E4,1.75E2,5E-1,-7.057999E1,1.6241142E2,8.513725E2,1.8336848E2,5.09E1,5E-1,2.5649E4,5E-1,2.5650693E3,5.2876117E2,1.2791009E2,5E-1,8.6316693E2,2.0915312E2,4.8947214E2,5.6464893E1,8.26345E4,4.6204865E2,1.3776318E3,3.637024E2,8.817555E2,2.393196E3,1.4647747E3,4.0107083E2,2.4543987E3,1.3652465E3,1.128046E3,5.064587E2,1.0608467E3,6.5225165E2,1.696393E3,1.2372031E3,1.3236815E3,9.145452E2,1.6611505E2,1.3924384E3,8.221524E1,5.998687E2,1.6133805E3,2.272151E3,2.5113352E3,2.1096838E3,1.6203401E3,2.2723928E3,2.8161912E3,1.8143257E3,1.9907786E3,2.6270374E3,1.889472E3,1.2513245E3,1.2333485E3,1.9894669E2,8.8915436E1,1.0845189E3,4.3646017E2,4.980205E1,1.5857474E3,1.2722029E3,8.103715E2,1.5132418E3,3.0994111E3,3.5248242E2,1.9111816E2,2.1474607E3,3.4972498E3,1.7499907E3,2.9230325E3,1.856947E3,1.7141016E2,7.801262E2,2.4380112E3,1.5833646E3,8.6022406E2,6.638854E2,1.1868612E3,2.1661246E2,1.1442512E2,2.604348E2,-1.9149666E1,1.8146219E2,2.4648003E2,1.5104499E1,2.3561864E2,4.8742728E2,4.7058685E2,2.2082422E2,2.9151706E2,-6.1877346E1,2.3403996E2,6.916906E2,1.1545667E3,8.793947E2,8.96332E2,4.6909357E2,1.3298774E3,4.6788712E2,1.4997765E3,1.1203259E3,8.939151E1,1.035859E3,1.3767537E3,1.1083358E3,8.525018E2,1.3400797E3,9.942132E2,7.2202423E2,4.6967365E2,8.498953E2,1.5024202E3,1.0796605E3,1.8649576E3,1.5108455E3,7.709969E2,1.2818292E2,1.2071926E3,7.642915E2,1.027766E3,4.7654166E2,6.742659E2,1.5076022E3,5.462964E2,1.2957056E2,1.1009117E3,1.6905162E2,6.123937E2,8.4826447E2,1.3955E3,9.36103E2,1.9514755E3,1.3016667E3,1.8496112E3,1.3999565E3,1.2501736E3,9.5163055E2,1.3748954E3,7.45836E2,3.551467E2,1.2987667E3],"split_indices":[33,36,36,26,35,32,33,36,23,36,33,31,0,17,33,33,35,15,0,24,32,3,35,23,35,17,35,18,29,2,32,35,35,32,33,32,0,32,35,0,17,26,35,0,6,33,0,15,1,31,33,33,30,35,32,0,32,4,24,29,2,1,13,32,35,33,1,0,4,0,1,33,7,0,0,0,0,7,0,33,35,1,0,18,0,16,32,16,34,33,33,33,2,0,0,35,31,33,33,5,0,0,0,33,35,34,32,34,34,0,33,4,34,32,32,33,0,0,13,32,2,0,24,24,35,32,29,33,0,0,0,35,0,2,0,0,33,0,33,0,0,35,0,3,0,24,34,35,0,0,33,0,33,33,33,23,1,1,32,35,35,33,0,0,33,0,0,21,33,2,34,0,0,33,0,3,6,0,0,0,0,33,0,0,0,34,0,33,0,0,35,34,29,24,35,35,0,33,32,35,0,35,16,35,35,35,35,35,35,0,32,0,0,0,33,1,35,0,0,29,0,24,4,15,0,35,34,33,13,33,0,0,35,0,0,0,33,0,33,1,0,2,35,32,35,28,35,0,35,0,0,35,0,0,29,0,30,0,0,32,35,0,0,0,0,15,0,32,34,33,0,33,0,0,0,0,0,33,0,35,0,35,35,0,29,30,35,0,0,0,0,29,0,33,33,15,0,35,4,14,15,0,33,35,0,24,32,2,13,0,0,0,33,0,0,33,33,0,0,0,34,0,0,33,35,32,33,33,32,1,4,36,0,2,34,33,0,0,0,0,0,2,35,35,26,33,35,4,13,0,35,33,35,36,0,0,33,34,24,0,0,0,0,35,1,33,29,0,0,0,0,0,0,0,0,33,0,0,0,0,0,0,0,0,0,0,0,0,0,0,0,0,0,0,0,0,0,0,0,0,0,0,0,0,0,0,0,0,0,0,0,0,0,0,0,0,0,0,0,0,0,0,0,0,0,0,0,0,0,0,0,0,0,0,0,0,0,0,0,0,0,0,0,0,0,0,0,0,0,0,0,0,0,0,0,0,0,0,0,0,0,0,0,0,0,0,0,0,0,0,0,0,0,0,0,0,0,0,0,0,0,0,0,0,0,0,0,0,0,0,0,0,0,0,0,0,0],"split_type":[0,0,0,0,0,0,0,0,0,0,0,0,0,0,0,0,0,0,0,0,0,0,0,0,0,0,0,0,0,0,0,0,0,0,0,0,0,0,0,0,0,0,0,0,0,0,0,0,0,0,0,0,0,0,0,0,0,0,0,0,0,0,0,0,0,0,0,0,0,0,0,0,0,0,0,0,0,0,0,0,0,0,0,0,0,0,0,0,0,0,0,0,0,0,0,0,0,0,0,0,0,0,0,0,0,0,0,0,0,0,0,0,0,0,0,0,0,0,0,0,0,0,0,0,0,0,0,0,0,0,0,0,0,0,0,0,0,0,0,0,0,0,0,0,0,0,0,0,0,0,0,0,0,0,0,0,0,0,0,0,0,0,0,0,0,0,0,0,0,0,0,0,0,0,0,0,0,0,0,0,0,0,0,0,0,0,0,0,0,0,0,0,0,0,0,0,0,0,0,0,0,0,0,0,0,0,0,0,0,0,0,0,0,0,0,0,0,0,0,0,0,0,0,0,0,0,0,0,0,0,0,0,0,0,0,0,0,0,0,0,0,0,0,0,0,0,0,0,0,0,0,0,0,0,0,0,0,0,0,0,0,0,0,0,0,0,0,0,0,0,0,0,0,0,0,0,0,0,0,0,0,0,0,0,0,0,0,0,0,0,0,0,0,0,0,0,0,0,0,0,0,0,0,0,0,0,0,0,0,0,0,0,0,0,0,0,0,0,0,0,0,0,0,0,0,0,0,0,0,0,0,0,0,0,0,0,0,0,0,0,0,0,0,0,0,0,0,0,0,0,0,0,0,0,0,0,0,0,0,0,0,0,0,0,0,0,0,0,0,0,0,0,0,0,0,0,0,0,0,0,0,0,0,0,0,0,0,0,0,0,0,0,0,0,0,0,0,0,0,0,0,0,0,0,0,0,0,0,0,0,0,0,0,0,0,0,0,0,0,0,0,0,0,0,0,0,0,0,0,0,0,0,0,0,0,0,0,0,0,0,0,0,0,0,0,0,0,0,0,0,0,0,0,0,0,0,0,0,0,0,0,0,0,0,0,0,0,0,0,0,0,0,0,0,0,0,0,0,0,0,0,0,0,0,0,0,0,0,0,0,0,0,0,0,0,0,0],"sum_hessian":[8.624E3,3.948E3,4.676E3,3.027E3,9.21E2,3.559E3,1.117E3,2.914E3,1.13E2,2.16E2,7.05E2,1.258E3,2.301E3,8.67E2,2.5E2,6.07E2,2.307E3,1.05E2,8E0,1.91E2,2.5E1,4.79E2,2.26E2,1.037E3,2.21E2,1.752E3,5.49E2,7.7E2,9.7E1,1.91E2,5.9E1,4.08E2,1.99E2,1.853E3,4.54E2,1E2,5E0,1.33E2,5.8E1,2E0,2.3E1,4.13E2,6.6E1,8E1,1.46E2,1.035E3,2E0,2.07E2,1.4E1,1.728E3,2.4E1,3.88E2,1.61E2,7.4E2,3E1,6E0,9.1E1,1.39E2,5.2E1,2.2E1,3.7E1,1.58E2,2.5E2,9.8E1,1.01E2,2.26E2,1.627E3,1.15E2,3.39E2,9E0,9.1E1,4E0,1.29E2,1.9E1,3.9E1,2.1E1,2E0,4.09E2,4E0,5.2E1,1.4E1,7.3E1,7E0,1.39E2,7E0,8.45E2,1.9E2,1.76E2,3.1E1,8E0,6E0,1.108E3,6.2E2,2.1E1,3E0,1.9E2,1.98E2,1.5E1,1.46E2,6E1,6.8E2,3E0,2.7E1,1.9E1,7.2E1,1.19E2,2E1,4E0,4.8E1,5E0,1.7E1,2.8E1,9E0,8.6E1,7.2E1,2.2E2,3E1,5E0,9.3E1,2.4E1,7.7E1,6E0,2.2E2,1.432E3,1.95E2,2.65E2,7.4E1,7E1,2.1E1,3E0,1E0,1.2E2,9E0,3.98E2,1.1E1,2E1,3.2E1,9E0,5E0,7E1,3E0,1.33E2,6E0,8.37E2,8E0,4.8E1,1.42E2,1.73E2,3E0,1.4E1,1.7E1,3E0,5E0,3E0,3E0,4.41E2,6.67E2,4.4E2,1.8E2,1.04E2,8.6E1,1.66E2,3.2E1,3E0,1.2E1,1.21E2,2.5E1,5.6E1,4E0,5.45E2,1.35E2,1.8E1,1E0,6.9E1,3E0,1.1E1,1.08E2,1.6E1,4E0,1E0,3E0,1.8E1,3E1,2E0,1.5E1,1.7E1,1.1E1,6E0,3E0,4E0,8.2E1,5.1E1,2.1E1,1.36E2,8.4E1,8.6E1,7E0,3E0,2.1E1,7.4E1,3E0,1.1E2,1.1E2,6.1E2,8.22E2,1.28E2,6.7E1,4.6E1,2.19E2,5.4E1,2E1,6E0,6.4E1,2.9E1,9.1E1,3.38E2,6E1,6E0,2.6E1,2E0,3E0,9.8E1,3.5E1,7.76E2,6.1E1,2.1E1,2.7E1,7E1,7.2E1,1.55E2,1.8E1,1E0,1.6E1,1E0,4E0,1E0,2E0,1E0,2E0,4.4E2,1E0,5.62E2,1.05E2,3.47E2,9.3E1,1.22E2,5.8E1,4.3E1,6.1E1,1.3E1,7.3E1,1.64E2,2E0,9E0,3E0,5.4E1,2E0,2E0,2E0,3.25E2,2.2E2,7.6E1,5.9E1,6.8E1,1E0,7E0,4E0,9.8E1,1E1,4E0,1.4E1,1.5E1,2E0,1E0,5E0,7.8E1,4E0,4.7E1,4E0,1.8E1,3E0,1.15E2,2.1E1,2.2E1,6.2E1,3.1E1,5.5E1,1E0,2E0,1.2E1,9E0,4.5E1,2.9E1,1.04E2,6E0,1.07E2,3E0,2.9E2,3.2E2,2.61E2,5.61E2,1.4E1,1.14E2,5.5E1,1.2E1,4.3E1,3E0,1.98E2,2.1E1,3E0,1.7E1,7.6E1,1.5E1,3.25E2,1.3E1,5.6E1,4E0,1E0,1E0,4.2E1,5.6E1,2.1E1,1.4E1,7.4E2,3.6E1,1.3E1,8E0,5E0,2.2E1,6.3E1,7E0,6.4E1,8E0,8.7E1,6.8E1,1.5E1,1E0,1E0,1E0,1E0,1E0,3.55E2,8.5E1,3.4E2,2.22E2,5E1,5.5E1,1.37E2,2.1E2,8.3E1,1E1,9.9E1,2.3E1,5.5E1,3E0,5.3E1,8E0,1.8E1,1.46E2,1E0,2E0,1E0,1E0,7.5E1,2.5E2,1.21E2,9.9E1,6E0,1E0,1E0,9.7E1,8E0,2E0,3E0,1E0,1.3E1,2E0,4.6E1,1E0,2E0,1.6E1,1.13E2,2E0,7E0,1.4E1,5.6E1,6E0,2.4E1,7E0,1.7E1,3.8E1,2.8E1,1.7E1,1E0,1.03E2,1E0,5E0,9.6E1,1.1E1,1.25E2,1.65E2,2.36E2,8.4E1,2.21E2,4E1,4.46E2,1.15E2,9.9E1,1.5E1,5.3E1,2E0,1E0,4.2E1,2E0,1E0,1.42E2,5.6E1,1.6E1,5E0,7.5E1,1E0,1E0,1.4E1,3.15E2,1E1,4.4E1,1.2E1,2E0,2E0,4.7E1,9E0,2.08E2,5.32E2,3.5E1,1E0,4E0,9E0,3E0,5E0,2E0,3E0,1E1,1.2E1,5.9E1,4E0,6E0,1E0,3E0,6.1E1,6.1E1,2.6E1,6E1,8E0,1.3E1,2E0,2.21E2,1.34E2,1E0,8.4E1,1.15E2,2.25E2,1.88E2,3.4E1,2.7E1,2.3E1,3.3E1,2.2E1,1.1E2,2.7E1,1.35E2,7.5E1,9E0,1E0,9E1,9E0,1.3E1,1E1,3E0,5.2E1,7E0,1E0,1.7E1,1E0,3.3E1,1.13E2,6E1,1.5E1,2.17E2,3.3E1,3.5E1,8.6E1,5.7E1,4.2E1,9E1,7E0,1E0,1.2E1],"tree_param":{"num_deleted":"0","num_feature":"37","num_nodes":"497","size_leaf_vector":"0"}},{"base_weights":[3.9292332E3,5.534556E3,2.9416238E3,4.7138022E3,8.1633433E3,2.4623848E3,3.6514285E3,4.608725E3,7.3598867E3,7.895731E3,1.4821307E4,2.8102297E3,1.8636892E3,7.8275273E3,3.4988723E3,3.6832544E3,4.8439585E3,6.8151904E3,1.4212905E4,9.755339E3,7.2805054E3,3.7802695E3,1.508062E4,3.0850498E3,2.1173467E3,2.0561572E3,1.2739702E3,1.2697648E4,6.9710312E3,3.225649E3,4.4767783E3,3.5189133E3,5.100572E3,5.007817E3,3.7544207E3,6.4232505E3,1.1166479E4,8.804841E3,1.2061443E4,6.6870444E3,9.034507E3,2.8209363E3,4.0364692E3,2.0057479E3,3.3031445E3,2.2594915E3,1.7090073E3,9.054575E2,1.4498464E3,1.3545144E4,2.5350938E3,6.2351885E3,1.1526494E4,3.1994946E3,1.3037879E4,4.226809E3,6.396998E3,4.0554905E3,3.1142798E3,5.5656147E3,4.073366E3,4.9535894E3,7.5411665E3,4.0038262E3,2.6782917E3,6.1968506E3,1.2607236E4,1.6796236E4,8.364894E3,1.5778432E4,1.037462E4,6.341945E3,1.1402867E4,8.530972E3,1.4777714E4,2.7263303E3,4.5900366E3,4.287679E3,2.3710754E3,1.3101177E3,2.1549985E3,3.727535E3,2.1209836E3,1.6727365E3,2.455288E3,9.4059143E2,1.7881001E3,3.0396826E3,7.56427E2,1.7035608E3,1.1943374E3,6.340203E3,2.1615105E3,3.0513252E3,4.440658E3,4.0765515E3,8.099903E3,2.6788855E3,6.4961094E3,3.9490566E3,7.1611553E3,3.52563E3,2.5721172E3,5.2652603E3,4.509701E3,1.1437344E4,6.7703037E3,4.541051E3,3.7447168E3,3.3908962E3,2.345272E3,6.5097925E3,4.800109E3,2.1184309E4,5.346728E3,7.7170044E3,1.4038729E4,5.991862E3,9.633521E3,1.209576E4,4.2215723E3,8.216089E3,1.1247762E4,1.6171876E4,1.1151279E3,2.7915479E3,1.0527214E3,4.2186597E3,8.363273E3,4.162191E3,7.861455E3,2.4626284E3,-7.370747E2,1.5456914E3,9.261844E2,2.3110837E3,1.7071868E3,2.3234448E2,2.2392903E3,1.8756113E3,9.167414E2,2.0220929E3,2.7399905E3,9.72379E2,-3.8305176E1,1.7281442E3,2.4995098E3,3.2992507E3,8.709214E2,4.5987048E2,9.475674E2,1.4150627E3,2.1450835E3,1.265977E3,4.9310568E2,6.715801E3,4.3720625E3,3.0024797E3,7.0035767E3,4.1645664E3,6.5560728E3,3.7848438E3,5.7092207E3,4.5434756E3,3.5353647E3,3.6002686E3,1.208893E3,5.656279E2,2.6581792E3,5.1533506E3,6.6048975E3,4.392448E3,5.609497E3,3.9059539E3,5.7727983E3,-5.947461E1,3.7717356E3,4.921278E3,2.5261306E3,2.7308818E3,1.2822103E3,8.863833E3,6.2890186E3,7.752372E3,5.3191665E3,9.802463E3,1.7758086E3,4.6758354E3,8.327418E3,3.117253E3,2.4771255E3,1.2022488E3,-2.9423105E2,3.7352925E3,5.5588896E3,2.5597014E3,4.366163E3,8.625501E3,1.2565664E3,2.616195E3,1.4829452E3,5.007034E2,1.634828E3,3.1214398E2,1.0283691E3,2.2636453E3,4.102107E3,3.8838788E2,1.750819E3,9.9773676E2,1.9622002E3,1.4508385E3,5.237412E2,2.994126E3,1.8392949E3,2.6786255E3,5.174331E3,1.3555436E3,8.512173E2,1.4849307E3,1.834255E3,-1.3623372E2,5.543176E2,9.934725E2,1.13909546E2,5.313243E2,1.5384323E3,1.8660232E3,2.8885422E3,1.0655729E3,1.5058602E3,5.6852856E2,2.1898352E2,7.351394E3,4.7379165E3,4.6970903E3,3.9837695E2,3.2871257E3,2.6290588E3,7.205398E3,1.8872197E3,4.29864E3,2.6355742E3,3.6511194E3,6.055774E3,6.367404E3,4.372683E3,3.8669915E3,5.268237E3,3.7006729E3,2.6833774E3,2.5912417E3,3.809503E3,-6.0779395E2,1.6937891E3,-1.5014714E2,9.6105225E2,3.1992605E3,2.351717E3,5.1117393E3,9.642388E3,4.3904785E3,6.9873555E3,4.235077E3,5.4631675E3,7.243594E2,5.760262E3,3.9935178E3,7.035547E1,9.926935E3,4.0032332E3,3.8023179E3,1.0771211E3,1.4682971E3,4.0102646E3,1.0683033E3,2.821156E3,7.664625E2,1.8509648E3,9.576942E3,6.54901E3,7.314082E3,4.7253765E3,7.035458E3,9.941777E3,5.61598E3,3.7646338E3,9.946315E3,2.3838203E3,3.001228E3,5.648435E3,1.3162203E3,2.5562312E3,1.8881229E3,1.0411127E3,-4.2536304E2,1.1514844E2,3.7779985E3,9.921709E2,1.9350609E3,3.224592E3,4.5189204E3,2.9266855E3,3.7658718E3,9.816179E3,6.2722375E2,-6.594922E1,1.22990234E2,1.6615366E3,-2.646306E2,4.5237817E2,1.1486757E3,5.088269E2,2.3088262E3,1.2121287E3,4.6537437E3,1.8153431E3,5.3563965E2,1.116735E2,1.8974736E3,1.2867136E3,1.1021415E3,5.1339185E2,2.053926E3,1.4926008E3,5.4528357E2,1.6679767E3,1.1967781E3,3.3457126E2,3.140394E3,8.7469434E2,1.0807996E3,2.0050946E3,2.8015933E3,2.371557E3,3.119811E2,1.061844E3,9.3359814E2,1.5915215E3,1.556523E3,2.013778E3,3.6632202E2,-7.608968E2,4.3158292E2,7.099415E2,9.0991614E2,1.5969188E3,-1.0080029E2,2.1907959E2,8.102604E2,2.5681284E2,1.7650972E3,9.546066E2,3.7068652E2,1.9061892E3,3.1628665E3,4.8413647E2,6.0049225E2,1.1870479E3,5.086393E2,1.5460171E3,-1.0544824E2,3.6227686E2,5.7892344E3,1.6876985E3,2.8599426E3,3.767628E3,2.5108696E3,4.101844E3,4.6953774E3,3.5369434E3,3.7941123E3,1.1475894E3,3.5212856E3,5.7351665E3,7.5399717E3,2.0780823E3,6.470363E3,1.3819209E3,4.281629E3,2.6445696E3,5.5589272E3,3.0820908E3,3.5306665E3,5.044407E3,1.2086849E2,2.9335847E3,2.0538682E3,3.1861604E3,3.8887373E3,6.781802E2,1.3781576E3,-1.4513184E2,3.9669324E3,1.9437583E3,2.0083622E3,3.0719941E3,6.5128223E3,4.984347E3,7.0461177E3,1.8189502E3,7.397322E3,4.162143E3,2.8550881E3,5.686377E3,8.9466504E2,1.9187402E2,5.9281816E3,1.9273408E3,4.490097E3,3.0543745E3,3.9234392E3,3.0483745E3,1.853123E3,-6.127422E2,1.2525277E3,3.956862E2,8.358403E3,4.9477793E3,7.447236E3,1.5931582E3,4.039779E3,1.0589855E4,7.5076763E3,5.0443047E3,1.4596839E4,7.283827E3,1.9312457E3,5.6916333E3,2.7860303E3,4.7969697E3,2.876655E3,4.0509683E3,2.089679E3,1.1170203E4,9.756254E2,2.2296023E3,2.6400127E3,1.3748849E3,1.2648394E3,6.8831793E2,7.924365E1,-6.199798E2,7.398723E2,2.1129167E3,3.4487722E3,1.5512451E2,1.4386897E3,4.5725273E3,1.00570215E3,3.0500015E3,1.7104902E3,6.464706E2,1.9119127E2,5.351738E2,1.3591731E3,8.336264E2,2.4570593E3,2.0157502E3,1.4075695E3,-3.8823895E1,-3.3007812E1,2.0051807E2,1.057711E3,1.9853136E3,1.7141685E3,5.95875E2,6.631587E2,2.4241667E2,1.3947634E3,2.127121E3,1.27086914E2,1.8260364E3,1.5558179E2,6.2332355E2,2.1200108E2,5.863395E2,3.202011E3,8.924121E2,-5.1076724E2,1.2228727E3,2.1719844E3,1.0870804E3,2.4050122E3,2.9492544E3,2.1900723E3,3.0825918E3,5.830454E2,7.927474E1,1.303086E2,1.0320161E3,1.6024713E3,3.9609253E2,2.316456E3,1.2943058E3,2.0256003E3,3.507456E2,4.4917838E2,5.8876465E1,-2.4844987E2,5.1624164E2,7.616516E2,2.8369092E2,1.5037859E3,8.2175104E2,1.9293888E3,5.9469257E2,1.0479233E3,-2.6923047E2,2.0471222E3,1.1909441E3,4.2262772E2,1.0524982E3,1.2876631E3,7.463745E2,1.9141846E3,3.9087695E2,3.762089E3,2.448821E3,3.6187046E3,4.8471533E3,2.7105117E3,2.05249E3,3.8131455E3,8.402297E3,5.306156E3,4.1362456E3,4.3485318E2,3.6523298E3,8.7663605E2,4.6204985E3,1.594041E3,7.3309863E2,3.715065E3,2.5661272E3,5.9063447E3,1.4981567E3,2.8390625E3,8.196247E3,2.4235437E3,1.753877E2],"categories":[],"categories_nodes":[],"categories_segments":[],"categories_sizes":[],"default_left":[true,true,true,true,true,true,true,true,true,true,true,true,true,true,true,true,true,true,false,true,true,false,false,true,true,true,true,true,true,true,true,true,true,true,true,true,false,true,true,true,true,true,true,true,true,true,true,true,true,false,false,true,false,true,false,true,true,true,true,false,false,true,true,true,true,true,false,true,true,false,false,true,true,true,true,true,true,true,true,true,true,false,true,true,true,true,true,true,true,true,true,true,false,true,true,true,false,false,false,true,false,true,true,true,true,false,false,true,true,true,true,false,false,false,false,true,false,true,true,false,false,true,false,false,false,true,true,true,false,true,true,true,false,true,true,true,true,false,false,true,true,true,true,true,false,true,false,false,false,true,true,true,true,true,true,true,true,true,true,true,false,true,true,true,true,true,true,true,true,true,true,true,true,true,true,false,true,false,true,true,true,true,true,true,true,true,false,false,false,true,true,true,true,true,false,true,true,true,false,false,false,true,true,true,true,true,true,true,true,true,true,true,true,true,true,true,false,false,true,true,true,true,true,true,true,true,true,true,true,true,true,false,true,false,true,false,false,true,true,false,false,true,true,true,true,true,false,true,true,true,true,true,true,false,false,false,true,true,true,true,false,false,true,true,true,true,true,true,false,false,false,true,false,true,false,false,false,true,false,false,true,true,true,true,true,true,true,false,false,true,true,true,true,false,true,true,false,false,false,true,true,true,true,false,false,false,false,false,true,false,true,true,false,true,true,false,false,false,true,true,true,false,true,true,true,true,false,false,true,true,false,true,true,true,true,true,false,true,true,true,true,true,false,true,true,true,false,false,false,false,false,true,true,false,true,false,false,true,true,false,false,false,false,false,true,true,true,true,true,true,true,true,true,true,true,true,true,false,false,false,false,false,false,false,false,false,false,false,false,false,false,false,false,false,false,false,false,false,false,false,false,false,false,false,false,false,false,false,false,false,false,false,false,false,false,false,false,false,false,false,false,false,false,false,false,false,false,false,false,false,false,false,false,false,false,false,false,false,false,false,false,false,false,false,false,false,false,false,false,false,false,false,false,false,false,false,false,false,false,false,false,false,false,false,false,false,false,false,false,false,false,false,false,false,false,false,false,false,false,false,false,false,false,false,false,false,false,false,false,false,false,false,false,false,false,false,false,false,false,false,false,false,false,false,false,false,false,false,false,false,false,false,false,false,false,false,false,false,false,false,false,false,false,false,false,false,false,false,false,false,false,false,false,false,false,false,false,false,false,false,false],"id":5,"left_children":[1,3,5,7,9,11,13,15,17,19,21,23,25,27,29,31,33,35,-1,37,39,-1,-1,41,43,45,47,49,51,53,55,57,59,61,63,65,-1,67,69,71,73,75,77,79,81,83,85,87,89,-1,-1,91,-1,93,-1,95,97,99,101,-1,-1,103,105,107,109,111,-1,113,115,-1,-1,117,119,121,123,125,127,129,131,133,135,-1,137,139,141,143,145,147,149,151,153,155,-1,157,159,161,-1,-1,-1,163,-1,165,167,169,171,-1,-1,173,175,177,179,-1,-1,-1,-1,181,-1,183,185,-1,-1,187,-1,-1,-1,189,191,193,-1,195,197,199,-1,201,203,205,207,-1,-1,209,211,213,215,217,-1,219,-1,-1,-1,221,223,225,227,229,231,233,235,237,239,241,-1,243,245,247,249,251,253,255,257,259,261,263,265,267,269,-1,271,-1,273,275,277,279,281,283,285,287,-1,-1,-1,289,291,293,295,297,-1,299,301,303,-1,-1,-1,305,307,309,311,313,315,317,319,321,323,325,327,329,331,333,-1,-1,335,337,339,341,343,345,347,349,351,353,355,357,359,-1,361,-1,363,-1,-1,365,367,-1,-1,369,371,373,375,377,-1,379,381,383,385,387,389,-1,-1,-1,391,393,395,397,-1,-1,399,401,403,405,407,409,-1,-1,-1,411,-1,413,-1,-1,-1,415,-1,-1,417,419,421,423,425,427,429,-1,-1,431,433,435,437,-1,439,441,-1,-1,-1,443,445,447,449,-1,-1,-1,-1,-1,451,-1,453,455,-1,457,459,-1,-1,-1,461,463,465,-1,467,469,471,473,-1,-1,475,477,-1,479,481,483,485,487,-1,489,491,493,495,497,-1,499,501,503,-1,-1,-1,-1,-1,505,507,-1,509,-1,-1,511,513,-1,-1,-1,-1,-1,515,517,519,521,523,525,527,529,531,533,535,537,539,-1,-1,-1,-1,-1,-1,-1,-1,-1,-1,-1,-1,-1,-1,-1,-1,-1,-1,-1,-1,-1,-1,-1,-1,-1,-1,-1,-1,-1,-1,-1,-1,-1,-1,-1,-1,-1,-1,-1,-1,-1,-1,-1,-1,-1,-1,-1,-1,-1,-1,-1,-1,-1,-1,-1,-1,-1,-1,-1,-1,-1,-1,-1,-1,-1,-1,-1,-1,-1,-1,-1,-1,-1,-1,-1,-1,-1,-1,-1,-1,-1,-1,-1,-1,-1,-1,-1,-1,-1,-1,-1,-1,-1,-1,-1,-1,-1,-1,-1,-1,-1,-1,-1,-1,-1,-1,-1,-1,-1,-1,-1,-1,-1,-1,-1,-1,-1,-1,-1,-1,-1,-1,-1,-1,-1,-1,-1,-1,-1,-1,-1,-1,-1,-1,-1,-1,-1,-1,-1,-1,-1,-1,-1,-1,-1,-1,-1,-1,-1,-1,-1,-1,-1,-1,-1,-1,-1,-1,-1,-1,-1,-1,-1,-1],"loss_changes":[1.3658063E10,7.047037E9,1.8081751E9,6.6258125E8,1.2727419E9,6.5950515E8,1.3429903E9,5.0725274E8,2.5402112E8,7.893238E8,2.6020864E7,3.775406E8,1.3085901E8,2.2432717E8,5.4050816E8,9.688269E7,3.2397312E8,8.005939E7,0E0,2.9711974E8,5.3187584E8,0E0,0E0,3.509637E8,6.959872E7,5.8608384E7,1.7612512E7,5.178893E7,1.4936909E8,3.758244E8,1.8943898E8,8.398746E7,7.36256E5,1.9151667E8,5.771648E7,3.947981E7,0E0,3.3061683E8,1.5606989E8,6.258504E8,2.816901E8,1.7694515E8,1.199447E8,5.209933E7,1.6175456E7,5.965389E7,1.8435008E7,2.8552976E7,1.0671296E7,0E0,0E0,1.153536E7,0E0,2.8510822E8,0E0,2.0092826E8,1.022976E6,3.386317E7,4.847053E7,0E0,0E0,2.0231373E8,2.1678464E7,1.1531008E7,4.150304E6,5.031424E6,0E0,1.8818086E8,3.6586906E8,0E0,0E0,4.055122E8,8.826112E7,2.0509696E7,1.7244493E8,1.1461427E8,4.3190656E7,8.791654E7,1.4051248E7,7.251088E6,2.6389632E7,0E0,2.831296E6,2.0059424E7,4.551885E7,1.064098E6,8.433792E6,5.0426E5,4.779164E6,9.192896E6,4.449584E6,1.2774144E7,0E0,2.596649E8,7.256909E7,1.6365773E8,0E0,0E0,0E0,2.9184E7,0E0,2.0547968E7,1.8354944E7,1.0898432E8,6.317875E7,0E0,0E0,2.5953024E7,1.502528E7,6.096112E6,1.2075664E7,0E0,0E0,0E0,0E0,1.3749811E8,0E0,3.9221248E8,3.1710208E7,0E0,0E0,9.146368E6,0E0,0E0,0E0,9.837414E7,8.812804E6,1.357056E7,0E0,7.44617E7,2.9532992E7,2.439088E6,0E0,4.583952E6,2.126078E6,1.78176E7,5.99488E6,0E0,0E0,6.479808E6,5.956944E6,2.4344128E7,2.3037696E7,3.31734E5,0E0,4.476608E6,0E0,0E0,0E0,2.214929E6,1.991632E6,5.833208E6,2.078832E6,2.770096E6,1.029275E5,2.2997632E7,1.3627504E7,1.4420685E8,3.95584E6,2.0240128E7,0E0,7.901491E7,2.229952E7,1.4928512E7,5.98464E6,1.9474688E7,6.314902E6,1.8425085E6,1.0716544E7,1.1602739E8,2.8606976E7,